,0,1,2,3,4,5,6,7,8,9,10,11,12,13,14,15,16,17,18,19,20,21,22,23,24,25,26,27,28,29,30,31,32,33,34,35,36,37,38,39,40,41,42,43,44,45,46,47,48,49,50,51,52,53,54,55,56,57,58,59,60,61,62,63,64,65,66,67,68,69,70,71,72,73,74,75,76,77,78,79,80,81,82,83,84,85,86,87,88,89,90,91,92,93,94,95,96,97,98,99,100,101,102,103,104,105,106,107,108,109,110,111,112,113,114,115,116,117,118,119,120,121,122,123,124,125,126,127
p0,0.0050512212,-0.1341714,-0.0041551706,0.058579534,0.2413924,-0.06909782,0.0239398,-0.13773961,0.012169321,0.3294558,0.078256354,-0.13984863,0.11775282,-0.28147662,0.04748544,0.20282252,-0.08750735,0.10862161,-0.4480288,0.24304076,0.2167888,-0.11383233,-0.2264109,-0.29820636,-0.27607518,0.09491219,-0.10680092,0.12606293,0.023731856,-0.068521075,-0.13494682,0.040772445,0.13911246,0.010531777,-0.067152165,0.2654985,0.19831122,0.027626637,0.026935067,0.24919361,0.18118723,0.14046064,0.052163795,-0.04955795,0.1820261,-0.020580124,0.03159232,-0.09200593,-0.03971953,-0.053400937,0.1866017,0.03175693,0.022121906,0.14984088,-0.22010206,-0.19383135,0.17149553,-0.29860753,-0.05274072,0.2943127,-0.38187152,-0.108832546,0.040712055,0.0028879894,0.20550935,-0.096153066,0.14216648,-0.033282433,-0.09029771,-0.10050546,-0.074031666,-0.088909894,-0.20358633,-0.12512556,0.2565501,-0.08740008,-0.026384719,-0.20718044,-0.146186,-0.08034594,-0.08011819,-0.033463392,0.08926109,0.2025111,0.15300635,0.2499316,0.039056983,-0.2168195,0.07816867,0.054022547,-0.13808356,-0.029585442,0.12986293,0.08090216,0.21608207,0.14289255,0.0167497,-0.18157929,-0.06781775,0.055891693,-0.20254843,0.13581541,0.0012314753,-0.09686177,0.14165653,0.022066645,0.034927126,0.1569401,0.3003963,-0.009799707,-0.045981698,-0.21373813,-0.1185961,0.09742219,0.08598323,0.14116581,0.19775334,0.17524642,0.09280689,0.0036891964,-0.06886634,-0.11398366,-0.2694961,0.15101579,-0.11513593,-0.06190278,-0.12086157,0.025075573
p1,0.0019010777,-0.050187,-0.0121232355,-0.0010680173,0.14853711,-0.07396409,0.07503617,-0.09493427,-0.021087026,0.26393342,0.06372685,-0.07908048,0.06000611,-0.15641074,0.0734705,0.110950574,-0.120228365,0.0021480669,-0.28482965,0.20827746,0.04596995,-0.07653015,-0.11243742,-0.23264892,-0.053338423,0.094009906,-0.0138015635,0.07455954,0.019541176,-0.070601724,-0.11513544,-0.0006706858,0.117802486,0.0030437927,-0.015938977,0.14095218,0.12621431,0.047149554,0.00963269,0.122152396,0.073895946,0.1267499,0.011632579,-0.014515744,0.14527763,-0.12555431,-0.017027322,-0.00597206,0.050733093,0.040853005,0.09811508,0.066798225,0.01842607,0.042231183,-0.12735541,-0.09869627,0.09613186,-0.10954958,0.010549467,0.13564597,-0.23847291,0.0117346905,0.040820494,-0.024031531,0.13676457,-0.07544162,0.023216143,0.028651549,-0.011860218,-0.03579727,-0.011713469,-0.121365756,-0.21122257,-0.101143986,0.15376242,-0.057198897,-0.0016442214,-0.11756572,-0.12597011,-0.05624682,-0.10468309,-0.026359057,0.1376878,0.16017376,0.054405354,0.19752271,0.060901646,-0.17680247,0.036192328,0.042069178,-0.06762623,-0.031046081,0.039504062,0.028986236,0.0866532,0.09247202,-0.067999676,-0.08502328,-0.003344062,0.037043747,-0.14234361,0.08406752,0.053633686,-0.08940778,0.020381764,0.032922447,0.008265253,0.08306903,0.14691462,0.015480694,-0.00066515984,-0.16906303,-0.05495583,0.035236694,0.056095082,0.061051227,0.14819871,0.050037388,0.0848074,0.044846825,-0.056904882,-0.14111343,-0.14413312,0.114761,-0.13484928,0.03542931,-0.08368936,0.0006591701
p2,0.0029971227,-0.06592743,0.013561607,0.00037131133,0.17881697,-0.06935116,0.07255895,-0.0640648,-0.012233869,0.2595276,0.059004452,-0.095310286,0.045759533,-0.12821391,0.0826671,0.12622805,-0.14787519,-0.009986795,-0.26766044,0.23144437,0.037069783,-0.06363838,-0.13687088,-0.24334906,-0.036184434,0.1051794,-0.007411488,0.07994285,0.029757792,-0.057688877,-0.123945214,0.006579996,0.11040976,0.011903552,-0.00080631446,0.1314615,0.12055386,0.04024258,0.0056231203,0.115245275,0.06461147,0.142242,0.005962189,-0.019205768,0.154747,-0.14687642,-0.03263151,0.006310406,0.084692374,0.062591285,0.08770454,0.095001265,0.018983187,0.02688646,-0.12437396,-0.08461085,0.08219823,-0.0927395,-0.0014876783,0.117587276,-0.2551646,0.03932934,0.042184673,-0.028259356,0.16004385,-0.093006335,0.020644052,0.03538516,0.010246124,-0.0356548,-0.030759202,-0.12123879,-0.24164468,-0.10568713,0.14986277,-0.07056892,-0.0032469335,-0.12401389,-0.15369067,-0.057677858,-0.10389771,-0.0024268706,0.17705496,0.18500572,0.056795694,0.22272238,0.07803119,-0.2002879,0.032792233,0.044451322,-0.04128674,-0.0543802,0.03325667,0.03978711,0.078494094,0.09239388,-0.09531737,-0.10530796,0.0041639227,0.03853049,-0.16883989,0.08931518,0.05160362,-0.102779046,0.014862812,0.036902737,-0.01697927,0.07341771,0.122835785,0.007842302,-0.0041722343,-0.17438912,-0.04709687,0.03659323,0.051419143,0.042776715,0.16580056,0.030394519,0.10076911,0.04389949,-0.045704547,-0.1561134,-0.122688696,0.10878942,-0.16820237,0.04555234,-0.10120955,0.013241821
p3,0.010786081,-0.089007154,0.026636954,0.040605422,0.2164816,-0.025687024,0.07724021,-0.048569124,-0.04201926,0.25126597,0.007535207,-0.14759469,0.04824831,-0.069342375,0.0895764,0.080351025,-0.13628744,0.028466769,-0.20265052,0.29132897,-0.0038808836,-0.0975391,-0.11921639,-0.23787344,0.017823147,0.11750482,-0.033084963,0.04706779,0.002959976,-0.10119555,-0.16825408,0.012151369,0.08981408,0.12500156,0.009728765,0.0938418,0.10420933,0.011876412,0.0028875757,0.10121195,0.12323211,0.17309865,-0.012771086,-0.008633944,0.20301872,-0.20372489,-0.035956323,0.038721234,0.15981829,0.11288063,0.15302213,0.14267087,0.1394529,-0.020863926,-0.121171646,-0.04715888,0.09652115,-0.06245354,-0.06684677,0.04664362,-0.27241153,0.117519066,0.02768314,-0.009465836,0.29296884,-0.15650575,-0.008075432,0.0141250575,0.04742521,-0.051627558,0.009589133,-0.07881237,-0.35247532,-0.12622076,0.13590463,-0.086403035,-0.011041267,-0.10355586,-0.20200107,-0.043396246,-0.15413164,0.04276827,0.18513307,0.22464342,0.029119702,0.2468053,0.14857653,-0.23494685,-0.025623208,0.09800259,0.025959875,-0.074849285,0.0054654763,0.030333461,0.04515401,0.12185387,-0.1524963,-0.16454734,0.009610652,0.08347333,-0.133633,0.07408143,0.08797087,-0.1529008,0.02345648,0.1217954,-0.053696472,0.055268887,0.16537973,0.030229501,0.030813519,-0.14477003,-0.048357233,0.033205815,0.04640307,0.057216723,0.18225123,-0.0026485438,0.19757952,0.051916864,-0.031191256,-0.2012188,-0.11780037,0.1362026,-0.25131112,0.088892706,-0.0832738,-0.0022456665
p4,-0.009755492,-0.08996412,0.0045549604,0.08163142,0.22003561,-0.08807819,0.05955934,-0.052475724,-0.007964599,0.29246613,0.057454377,-0.09979865,0.035252146,-0.12693575,0.07991509,0.17335503,-0.15667659,0.016720066,-0.24527399,0.30953643,0.096945256,-0.091041364,-0.1662475,-0.29923648,-0.095270455,0.12452212,-0.06635382,0.07908061,0.075122625,-0.07846044,-0.20455049,0.031548265,0.074091926,0.085111044,-0.008242808,0.17989776,0.1337548,0.018698925,0.021457726,0.14409646,0.08937865,0.19490923,0.024216078,-0.035853293,0.2085123,-0.14475691,-0.05075161,0.053913902,0.14822306,0.047882926,0.16552354,0.08984425,0.081481166,0.017440477,-0.13328601,-0.079971746,0.10966761,-0.11132664,-0.060814798,0.073222,-0.2803838,0.07928715,0.015825244,-0.029598666,0.24201314,-0.15487388,0.033249322,0.014428042,0.014404403,-0.066012256,-0.017054351,-0.10053101,-0.31402612,-0.16813286,0.21457624,-0.073836885,-0.055407766,-0.15073122,-0.18939531,-0.009906971,-0.14618978,0.026664637,0.17302683,0.24849539,0.06904713,0.28009662,0.16952695,-0.24358852,0.026182339,0.116080575,0.0102895815,-0.078180194,0.043022405,0.07509985,0.09254272,0.12849292,-0.15559277,-0.21014851,0.0034011453,0.0702089,-0.19609141,0.1156499,0.09545038,-0.11346983,0.112180114,0.04494146,-0.07093277,0.088344075,0.20851363,-0.0030077212,-0.0078038936,-0.18918377,-0.06693614,0.07537184,0.044279505,0.09130231,0.15612917,0.030740147,0.16262475,0.020741196,-0.08319908,-0.20454364,-0.1644409,0.15677555,-0.2122717,0.036908947,-0.0714572,0.002075576
p5,-0.020915722,-0.10706164,0.05071501,0.115488075,0.2267838,-0.097169176,0.1021521,-0.03797767,-0.015427138,0.2861498,0.074610464,-0.10406497,0.01895982,-0.13565919,0.1100881,0.20410267,-0.16269396,0.010049601,-0.2593061,0.34231192,0.10379671,-0.07623838,-0.1757916,-0.31794512,-0.08134569,0.14613841,-0.06887497,0.106062025,0.11745171,-0.055391423,-0.24591792,0.08351801,0.06508861,0.09541624,-0.0029893613,0.18373455,0.15433885,0.0026101544,0.038385477,0.11304404,0.057263114,0.22469296,0.014253505,-0.049221653,0.2503607,-0.1753537,-0.082111456,0.08160225,0.1677313,0.0947053,0.16609628,0.108318254,0.11300111,0.030321114,-0.15532708,-0.03704739,0.1528856,-0.0886106,-0.098268196,0.05579684,-0.2932643,0.10744631,0.03792584,-0.065273784,0.27956918,-0.1799261,0.03195619,0.041178256,0.033934154,-0.10826118,-0.03831574,-0.1317726,-0.3895989,-0.2121477,0.20910157,-0.074342564,-0.0498746,-0.13729389,-0.22123955,0.016938437,-0.15642539,0.043170117,0.23944686,0.33622962,0.06941673,0.33250493,0.2278893,-0.26121554,0.026624186,0.15268321,0.01547134,-0.1345241,0.020175701,0.04806676,0.0980464,0.14972045,-0.22346188,-0.2559194,0.026249958,0.06634137,-0.23662537,0.14589046,0.08182506,-0.057358183,0.10311245,0.079667196,-0.121091485,0.08342874,0.21869235,-0.0059152367,-0.014457242,-0.17748226,-0.014448421,0.09332805,-0.0010150889,0.043732736,0.15569215,0.017035674,0.20003806,0.0200797,-0.08554046,-0.28504607,-0.15095095,0.15163475,-0.26243126,0.060644034,-0.071442895,0.021848025
p6,0.004347279,-0.07157955,-0.017938934,-0.009884482,0.19205202,-0.0707456,0.060049832,-0.10996337,-0.02043156,0.29305443,0.035985533,-0.09131633,0.07301377,-0.17601512,0.08013264,0.1396986,-0.13927522,0.0059048696,-0.3345413,0.23638266,0.06898137,-0.09634057,-0.14092638,-0.25342423,-0.08780821,0.09771397,-0.02684927,0.080120414,-0.013833755,-0.08607086,-0.10758476,-0.011620452,0.12919764,0.008738794,-0.028313067,0.16148269,0.1300013,0.04739112,-0.009583962,0.16237433,0.098981045,0.14285477,0.013641697,-0.0054407194,0.14149383,-0.1255052,0.0011072531,-0.022714019,0.038048584,0.015999418,0.11586694,0.078021996,-0.0039661485,0.044623625,-0.1538914,-0.11512892,0.101618186,-0.13668711,0.002047874,0.15776299,-0.290282,0.0036541317,0.04480894,-0.021567835,0.14121026,-0.066426426,0.030754276,0.025393901,-0.018947825,-0.029307239,-0.025873927,-0.12700112,-0.19974783,-0.12012127,0.17148036,-0.07455038,0.008399996,-0.14201134,-0.1322056,-0.100634106,-0.09878084,-0.024367932,0.10919697,0.15689981,0.059945215,0.20481049,0.030593932,-0.19882686,0.03365479,0.03995766,-0.07577111,-0.030822722,0.060373902,0.03419048,0.12455799,0.10053036,-0.038404737,-0.103366315,0.006675913,0.056694455,-0.15318646,0.092769735,0.04690584,-0.10242477,0.012925955,0.03974072,0.023420032,0.10768581,0.1757673,0.025439894,0.0022267245,-0.19341266,-0.089141294,0.034623753,0.08249755,0.07045999,0.16070452,0.06408868,0.07950396,0.021053167,-0.053046707,-0.13889474,-0.16096,0.118621066,-0.14716502,0.033420566,-0.09977735,0.012985505
p7,-0.0064396663,-0.07161952,0.002583877,0.0018545758,0.17913051,-0.0739112,0.071627356,-0.0942976,-0.005015368,0.28275385,0.059348974,-0.11077553,0.07142815,-0.17277278,0.07048018,0.13494012,-0.14177303,0.010014239,-0.31176722,0.2273398,0.07586764,-0.08390567,-0.1423909,-0.24909036,-0.0863566,0.10240634,-0.050512478,0.08759982,0.016974976,-0.080904655,-0.14756015,0.0071982034,0.11718896,0.019272484,-0.021830501,0.16868377,0.13086636,0.035309654,0.014214417,0.13346767,0.09036174,0.13672943,0.02099866,-0.021092324,0.1543858,-0.12597889,-0.012099984,-0.006798085,0.05665501,0.041980695,0.12631685,0.08099992,0.027461786,0.042442314,-0.1417455,-0.1115139,0.10901564,-0.12167181,-0.013730836,0.13629676,-0.28545326,0.0037960487,0.051102567,-0.036135174,0.16575071,-0.075815484,0.044794228,0.030716008,-0.018608654,-0.05347474,-0.010653216,-0.117738254,-0.21377185,-0.1082418,0.1614275,-0.064125635,-0.00766707,-0.14103709,-0.15749004,-0.063081525,-0.096187495,-0.023048526,0.14276658,0.17993698,0.07359265,0.21623567,0.07581881,-0.20546912,0.03585867,0.06179967,-0.071346804,-0.048751783,0.047412045,0.02080952,0.120510384,0.10415333,-0.07273444,-0.1250141,-0.006813477,0.05475885,-0.17615579,0.102383375,0.04376572,-0.08342521,0.0378131,0.03983054,-0.01263571,0.10911321,0.16570328,0.018572085,-0.0015899776,-0.16973408,-0.066528395,0.046280388,0.04013119,0.06972645,0.16287035,0.071946904,0.11648531,0.025063358,-0.07346328,-0.16077605,-0.14855953,0.11557735,-0.15204597,0.049435448,-0.08967071,0.015070243
p8,-0.0032744484,-0.09159731,0.0029880146,-0.020184008,0.17875966,-0.12497182,0.070402764,-0.12263749,-0.0018376358,0.319481,0.09250576,-0.11430608,0.100994386,-0.21565543,0.07886009,0.16496189,-0.13967095,0.034777973,-0.384567,0.23599324,0.14270923,-0.08202792,-0.17571431,-0.28079742,-0.15057236,0.118008584,-0.085660145,0.10201552,0.030393863,-0.07794117,-0.15397903,-0.0018622958,0.1283928,0.020340977,-0.0051432536,0.21754214,0.15405558,0.051545862,0.035377942,0.16505863,0.10796477,0.16362046,0.030254167,-0.047316585,0.18785329,-0.11561752,0.021914063,-0.040088497,0.05284139,0.04308505,0.15906319,0.07267299,0.024611134,0.057206355,-0.13960584,-0.15590926,0.13897324,-0.19989236,-0.009923529,0.19143263,-0.3294738,-0.019285098,0.065622054,-0.047764033,0.19494621,-0.07763664,0.096632995,0.038545664,-0.032427732,-0.04825094,-0.027459228,-0.13037877,-0.23337178,-0.104949854,0.20643406,-0.073620595,-0.00025236164,-0.16126484,-0.15824462,-0.06485174,-0.13100544,-0.06525909,0.16372463,0.21242288,0.1029813,0.23430803,0.06564881,-0.22522797,0.048590697,0.06711131,-0.110088885,-0.047942683,0.06567001,0.027192954,0.16747268,0.100389,-0.059551373,-0.14823833,-0.02276363,0.056969043,-0.2041482,0.12938207,0.032336865,-0.077104814,0.07948589,0.029562756,0.0034494833,0.13980173,0.20124432,-0.0019472697,0.004203464,-0.1990192,-0.08432009,0.07358968,0.047635924,0.078363344,0.18856017,0.104202814,0.10250381,0.04226837,-0.07871849,-0.15506521,-0.21272074,0.13551366,-0.14714561,0.020424832,-0.10792547,0.016158083
p9,-0.009915427,-0.09544365,0.007028965,-0.012120707,0.18205284,-0.107291944,0.062960885,-0.12646319,-0.01022297,0.31829974,0.07506023,-0.14075893,0.114526235,-0.22011961,0.07063486,0.15752578,-0.11967071,0.04319782,-0.4014266,0.2153267,0.14948367,-0.08355751,-0.2057672,-0.27898502,-0.19048862,0.10073934,-0.0873211,0.112201855,0.013025068,-0.07526683,-0.13481365,-0.0067453054,0.13953605,0.0042900187,-0.025285136,0.2204965,0.15368894,0.03541034,0.032212637,0.17152084,0.111209676,0.13801327,0.03606078,-0.04017042,0.16268615,-0.09533593,0.045618422,-0.07222321,0.005720239,0.023692276,0.16189475,0.066969596,0.020721626,0.08811701,-0.14747056,-0.1575738,0.15384057,-0.21560317,-0.027054641,0.21099657,-0.35173324,-0.04217308,0.07757094,-0.037187368,0.18833053,-0.06367966,0.111997336,0.02470174,-0.065342024,-0.061591685,-0.035986703,-0.11710852,-0.2155738,-0.096043,0.19450955,-0.06892449,-0.0090582725,-0.1751519,-0.13569036,-0.07296553,-0.106319584,-0.07702121,0.1641036,0.18975012,0.12827781,0.22202112,0.06106333,-0.22112936,0.06298487,0.061139464,-0.13188069,-0.050546393,0.08010755,0.03242438,0.17492051,0.103221,-0.023518778,-0.12318901,-0.037425447,0.04729042,-0.20948596,0.11573685,0.013341563,-0.07951427,0.08087516,0.024632193,0.011916038,0.14801207,0.21819173,-0.0021974337,-0.00094999705,-0.20270208,-0.0835918,0.08323462,0.051727623,0.10301535,0.19102816,0.13136327,0.087600924,0.040551275,-0.0732261,-0.1333002,-0.2197784,0.1300886,-0.13144666,-0.0015418694,-0.10142816,0.024469078
p10,0.0049475254,-0.081851676,-0.06832205,0.019831156,0.2147024,-0.0116247935,-0.0073005836,-0.09004971,-0.036155626,0.20680824,0.04298095,-0.15424573,0.111211896,-0.1019259,0.10420275,0.030625414,-0.12324898,0.06692464,-0.25659406,0.2839485,0.030880604,-0.05599232,-0.07402649,-0.2217708,0.010028347,0.12034213,0.008315746,0.039296098,-0.0052411286,-0.10439006,-0.16512276,0.0043264786,0.066468924,0.10012953,0.048273534,0.12730457,0.12616463,0.07240004,0.032351144,0.1462195,0.12808156,0.15428044,0.01563625,-0.008537278,0.14847697,-0.22338413,0.022973496,-0.02258163,0.15222071,0.10440606,0.20355873,0.0881642,0.12820783,-0.024727253,-0.03868501,-0.08029227,0.0967234,-0.08997708,-0.039574288,0.12028872,-0.2775832,0.06045705,-0.0047129416,0.0036313816,0.2698964,-0.15007171,0.009700955,-0.0013176019,0.043087248,-0.05920543,0.0045218915,-0.0379494,-0.36128,-0.06389883,0.11271237,-0.11343691,-0.049282223,-0.07563442,-0.15447171,-0.08118717,-0.14425439,0.013794613,0.14635369,0.22419539,0.056895945,0.19361664,0.09773324,-0.27084383,-0.022873282,0.07337396,0.04175714,-0.06999185,0.02543354,0.06209542,0.09908299,0.10311773,-0.12704001,-0.10859521,-0.030542709,0.09133267,-0.14614953,0.078231975,0.06623004,-0.18480895,0.03255196,0.09704936,-0.030356158,0.074690565,0.15100552,0.057294473,0.036481142,-0.13849998,-0.041587055,-0.00715559,0.079695046,0.071172826,0.16975076,-0.0070808693,0.15116554,0.06963736,0.03690431,-0.15708596,-0.15292785,0.12254652,-0.2642545,0.052914508,-0.08201001,0.016746469
p11,0.0043122387,-0.0975867,-0.081558205,0.032087065,0.2249908,-0.027015513,-0.012797543,-0.09201277,-0.032227896,0.19906107,0.051341053,-0.17886691,0.14139603,-0.0944603,0.10844208,0.019484686,-0.10709916,0.07469735,-0.2607276,0.29126817,0.05126513,-0.06309135,-0.083450824,-0.22754852,3.0813782e-05,0.11853836,-0.001806652,0.04309078,-0.011716374,-0.119189404,-0.17256428,0.015841044,0.057428546,0.106442556,0.056059245,0.13496162,0.13859099,0.059663072,0.048408583,0.14230406,0.13330849,0.16560327,0.020097747,-0.024247533,0.15196699,-0.23466489,0.04119089,-0.023009876,0.14950085,0.114798285,0.23437211,0.07146555,0.14819618,-0.012508052,-0.03342083,-0.08598407,0.09262792,-0.090300046,-0.067915104,0.13152027,-0.30266005,0.055938292,-0.019334218,0.004549442,0.29427192,-0.16001692,0.01857312,-0.0015208652,0.038130645,-0.06816589,0.00630111,-0.014196904,-0.38693488,-0.06328327,0.12111372,-0.117880926,-0.06199767,-0.07091013,-0.15948607,-0.07767808,-0.15493593,0.017038627,0.14761661,0.23493426,0.06875338,0.18703762,0.10679231,-0.27603728,-0.03802752,0.085654646,0.035238553,-0.073225684,0.030652007,0.060927078,0.10902334,0.090779245,-0.13797924,-0.116091006,-0.026615625,0.10841338,-0.14556451,0.08605361,0.06570447,-0.18649566,0.043817185,0.11289413,-0.03022729,0.076528184,0.16194211,0.041936293,0.026152426,-0.13144693,-0.02846919,0.0014606796,0.08702511,0.07709074,0.17075719,-0.0137666045,0.15622616,0.06741689,0.043531977,-0.15931234,-0.17664275,0.12164966,-0.27370358,0.056941707,-0.06604724,0.020196509
p12,-0.003911709,-0.10632563,-0.087119825,0.04157394,0.21966872,-0.023820618,-0.017786648,-0.094192564,-0.03151741,0.19695942,0.0756665,-0.18825817,0.14242357,-0.10939422,0.10401027,0.033725362,-0.11686817,0.09294506,-0.26599774,0.29072323,0.05982131,-0.044692673,-0.07228916,-0.21646273,-0.01944632,0.13325174,-0.0131131625,0.038778767,-0.015505332,-0.09838964,-0.19048136,0.018490976,0.065333575,0.118973486,0.051845234,0.13528447,0.13341129,0.06391777,0.077175975,0.15520778,0.14017339,0.17745359,0.010238177,-0.040588554,0.16827738,-0.23664466,0.03866154,-0.034085073,0.15204525,0.11905723,0.2445291,0.0698531,0.15049794,-0.0025996205,-0.036492582,-0.088897265,0.10236534,-0.107574135,-0.059354227,0.13851222,-0.30482185,0.035802003,-0.019801231,-0.0024763271,0.3004688,-0.17515662,0.017745525,-0.0031955647,0.044664387,-0.07741028,0.0045415866,-0.024169464,-0.38362837,-0.062148802,0.12134451,-0.13420907,-0.059050165,-0.074132346,-0.16592596,-0.06985133,-0.14939909,0.009312953,0.15709406,0.24337362,0.08588,0.19657028,0.115158625,-0.28902546,-0.030080788,0.09378108,0.03236823,-0.06798445,0.034631338,0.07591135,0.10436666,0.09405844,-0.13120952,-0.11359017,-0.0420909,0.10456108,-0.16093066,0.10917817,0.051098507,-0.1753794,0.06153953,0.1067768,-0.03783125,0.08747498,0.17396593,0.047708686,0.03442591,-0.13142578,-0.041500695,-0.0021015531,0.073780715,0.077895336,0.18822348,-0.013052474,0.16427732,0.07404003,0.043753352,-0.16125453,-0.18200192,0.13252315,-0.25848308,0.046773277,-0.05698297,0.012183042
p13,-0.0067657973,-0.112075195,-0.08536844,0.056823168,0.22817448,-0.022270052,-0.02561017,-0.088713,-0.03264869,0.2027411,0.047243506,-0.19138615,0.13883229,-0.08170115,0.11263728,0.0060111266,-0.109721765,0.105309285,-0.26889098,0.31678948,0.05278554,-0.05820538,-0.0683895,-0.22535564,0.004127711,0.14083114,-0.00082491105,0.05486281,-0.011559712,-0.11641868,-0.20247957,0.028701171,0.05644082,0.14167203,0.060693644,0.1359269,0.14443587,0.06301697,0.06767424,0.15465923,0.14045908,0.18456104,0.022081621,-0.02340608,0.164942,-0.25748914,0.03266365,-0.023575872,0.18008333,0.13399646,0.2577023,0.07710708,0.19134049,-0.0326058,-0.013290907,-0.082654625,0.10797929,-0.098936565,-0.0812817,0.13390614,-0.31699416,0.05762467,-0.02595695,0.02018936,0.35399428,-0.19188951,0.014462443,-0.0044740187,0.04583157,-0.09749278,0.010603365,0.0016126593,-0.42788225,-0.061793752,0.11047108,-0.14436474,-0.069230855,-0.06542192,-0.18379578,-0.06524476,-0.16504492,0.017543962,0.16971283,0.26084948,0.07807247,0.21526495,0.1370154,-0.30985993,-0.050305013,0.10904779,0.066325925,-0.09160583,0.027995316,0.08694482,0.09671117,0.10583144,-0.15809307,-0.13402352,-0.033225704,0.11085429,-0.1487408,0.10730032,0.056804694,-0.1999008,0.064518355,0.12947081,-0.056372207,0.086165585,0.18080874,0.04225325,0.04470477,-0.12433855,-0.038073994,-0.0065453444,0.07685579,0.08580384,0.18806145,-0.02066316,0.17784046,0.07348746,0.051711854,-0.16692732,-0.18627228,0.13948905,-0.30337518,0.05216306,-0.06993488,0.0103660915
p14,0.0050290693,-0.089776136,-0.06713894,0.030907353,0.22261508,-0.021442004,-0.012217295,-0.097867,-0.035117786,0.21781941,0.055852797,-0.1861489,0.14078309,-0.10233631,0.11054922,0.020773053,-0.12575682,0.083506696,-0.26578242,0.30124524,0.04820175,-0.056063212,-0.07914303,-0.23637381,0.0036107828,0.121072754,-0.008400089,0.0430794,-0.014884783,-0.10991037,-0.1982007,0.02322558,0.06813676,0.11814678,0.049824093,0.14708622,0.12896217,0.06763585,0.050612003,0.1468031,0.14290923,0.1832634,0.020081041,-0.022353582,0.16615179,-0.25094542,0.01721701,-0.026767913,0.16726272,0.11946716,0.23909512,0.09034671,0.14815313,-0.026144007,-0.03756744,-0.07676748,0.09403873,-0.10086823,-0.07387533,0.12894736,-0.3132201,0.052026235,-0.018356888,0.0037550859,0.31616622,-0.17056204,0.009732565,0.0042532235,0.049812704,-0.07465561,0.004173234,-0.014922551,-0.40098765,-0.07352515,0.117405385,-0.1379776,-0.059984785,-0.07636437,-0.17458105,-0.07593581,-0.16037184,0.020816224,0.16957226,0.25572804,0.07832263,0.20521267,0.13207982,-0.2902428,-0.027393948,0.09259347,0.04436423,-0.06973896,0.02912189,0.067224585,0.10471364,0.11041475,-0.15042752,-0.11527965,-0.030536706,0.09801342,-0.14511544,0.102198504,0.0630851,-0.18516082,0.058659732,0.11441567,-0.03641175,0.07835728,0.15966834,0.04568008,0.033164527,-0.14056225,-0.042041633,-0.009373536,0.08298338,0.082726754,0.19614203,-0.0046352935,0.16455491,0.0790454,0.04301268,-0.17662382,-0.17690161,0.14468426,-0.28335297,0.053804208,-0.06799767,0.007924256
p15,-0.0029190364,-0.107342,-0.10252997,0.022561096,0.21878508,-0.01764829,-0.046260253,-0.09163865,-0.04316929,0.19522145,0.039623823,-0.19301158,0.16732791,-0.07177068,0.103660956,-0.030446792,-0.11767886,0.096559905,-0.26686823,0.29568702,0.050242703,-0.056201316,-0.04923906,-0.21162686,0.023616048,0.13049598,-0.0042646397,0.031972345,-0.02820748,-0.12208528,-0.20565999,0.015266387,0.061865084,0.1526156,0.07630683,0.14732723,0.13026655,0.07556779,0.049074892,0.16736576,0.15471207,0.17222288,0.02756038,-0.02955556,0.14549735,-0.27606922,0.055991024,-0.0299659,0.20480235,0.121288985,0.26637128,0.07572274,0.19947757,-0.05097123,0.027385708,-0.08627072,0.10393317,-0.089914694,-0.076866284,0.14272435,-0.30766982,0.046719946,-0.03902166,0.021819785,0.35347933,-0.1824559,0.0076499768,-0.012566263,0.051568754,-0.08287838,0.015767204,0.022129433,-0.44303626,-0.035400197,0.08928039,-0.14854188,-0.09020581,-0.043320414,-0.17043449,-0.0943048,-0.1604463,0.018733589,0.15002273,0.26129925,0.06328505,0.18512715,0.13778816,-0.30393243,-0.060031127,0.08025644,0.062189084,-0.062730126,0.022764767,0.100587286,0.11069444,0.08069274,-0.17049578,-0.124057285,-0.03514237,0.13273188,-0.13883048,0.08559377,0.08349527,-0.22244705,0.075967446,0.13608305,-0.037540022,0.06949375,0.15832268,0.071259335,0.052083492,-0.10799133,-0.031763285,-0.029199777,0.08548227,0.07590591,0.19136155,-0.015751066,0.16901693,0.090258785,0.067772225,-0.15263003,-0.17524363,0.13111214,-0.29372522,0.040200267,-0.058024507,0.022736777
p16,0.00032429944,-0.08373953,-0.023457395,7.2585026e-06,0.20854235,-0.059783794,0.052977327,-0.121414006,0.010740532,0.29523492,0.07115019,-0.08304302,0.09384281,-0.22389078,0.07466511,0.14614956,-0.113242395,0.010273271,-0.34718657,0.25532043,0.09276487,-0.08369534,-0.16738719,-0.25409546,-0.118252926,0.09666301,-0.02723116,0.083963394,0.019644018,-0.0585085,-0.107627176,0.018299095,0.11316444,-0.03460891,-0.002880972,0.189005,0.1708501,0.052417304,0.029447999,0.17570879,0.11846617,0.13070661,0.03605817,-0.019861933,0.13643274,-0.09572194,0.010260187,-0.04765467,0.021356769,0.021599293,0.099231996,0.063388765,0.012941904,0.07261918,-0.14317946,-0.14896089,0.1106086,-0.17043115,0.016568702,0.21212731,-0.28396645,-0.034636836,0.04322933,-0.016699903,0.14733107,-0.07895578,0.061695714,0.026739202,-0.025593065,-0.045278877,-0.05566071,-0.12443932,-0.22190367,-0.0875728,0.2035441,-0.08444614,0.0068247193,-0.14417806,-0.1408066,-0.08158222,-0.09347294,-0.057172254,0.14106424,0.16622655,0.08834963,0.21987955,0.04755012,-0.20208772,0.05750996,0.019397885,-0.09547072,-0.035036832,0.074979484,0.04914487,0.14557423,0.09083348,-0.03207742,-0.09182213,-0.017527655,0.040301505,-0.17491284,0.10263106,0.054816633,-0.10867137,0.045295328,0.021016076,0.018528799,0.09950747,0.18470018,0.0049361717,-0.016503116,-0.20309277,-0.053398594,0.057523664,0.06432289,0.09694801,0.16022031,0.07644148,0.09030541,0.03203916,-0.046580825,-0.13706419,-0.19788395,0.106237285,-0.13536906,-0.010580033,-0.1130158,0.021092147
p17,-0.008898247,-0.107598834,-0.036423307,0.04332275,0.2073992,-0.05329983,0.02023633,-0.08320271,-0.023049124,0.2329115,0.073058076,-0.19391923,0.12921935,-0.13346058,0.10569114,0.068284415,-0.10584804,0.08875305,-0.28986254,0.2713626,0.09628763,-0.064212,-0.12110103,-0.24362975,-0.073539115,0.12679313,-0.032300055,0.079582416,0.01974162,-0.113127746,-0.19243386,0.031911425,0.07541539,0.11076725,0.030531295,0.16966131,0.13500266,0.037615385,0.07146529,0.13742991,0.13116355,0.17950472,0.026051259,-0.039354898,0.1834856,-0.21309389,0.029900268,-0.023666307,0.13978805,0.11300152,0.24711382,0.08805161,0.13759254,0.004461365,-0.057254985,-0.07989937,0.116189815,-0.1275622,-0.09938754,0.14976911,-0.33526534,0.041252892,0.019316604,-0.0068293097,0.3098386,-0.15221305,0.052765876,0.014122121,0.015066317,-0.080145985,0.0025001673,-0.024702938,-0.37359574,-0.08168524,0.1436817,-0.11054406,-0.054766316,-0.09745457,-0.18127865,-0.03757692,-0.1494898,0.007321509,0.18845464,0.2585004,0.0921413,0.21468545,0.13645668,-0.2829087,-0.0044378955,0.10370799,-0.0009583439,-0.086262025,0.04439685,0.05598809,0.1211515,0.12026192,-0.12035954,-0.1533028,-0.035068724,0.08924224,-0.16942629,0.11155736,0.031069854,-0.1321714,0.07356166,0.10651512,-0.046223182,0.11795534,0.1926412,0.022153867,0.023595145,-0.1404216,-0.048237205,0.033981234,0.05226899,0.07338346,0.19082059,0.02253054,0.16466689,0.0730242,0.012426955,-0.1729193,-0.19480635,0.1401789,-0.25935408,0.05098864,-0.07482782,0.025833398
p18,0.01882247,-0.021419462,-0.023392376,-0.0067317,0.24057202,0.0103175165,0.08986584,-0.050677445,-0.06040923,0.2893909,-0.051150233,-0.051168505,0.023215745,-0.0769769,0.08898365,0.0835618,-0.23684594,-0.09531298,-0.2571359,0.32803237,-0.09815467,-0.1374039,-0.08917429,-0.25978023,0.12834391,0.114634536,0.076035276,0.046579015,-0.034476116,-0.0993291,-0.08410845,-0.018669007,0.13712564,0.032258555,-0.026375582,0.096209496,0.07406639,0.0907064,-0.09218159,0.15561564,0.056903556,0.12238062,-0.011715311,0.07540942,0.11109824,-0.24530153,-0.08894419,0.07319566,0.1470678,0.045287255,0.0067126583,0.1618759,0.008718601,-0.056400187,-0.16061251,-0.037923362,0.017984228,0.05060194,0.051379416,0.031606413,-0.22704063,0.09588508,0.03859264,-0.023999717,0.1626219,-0.08555149,-0.11259895,0.025548063,0.072561696,-0.008394541,-0.026344813,-0.18679404,-0.27345136,-0.15392643,0.12664258,-0.10474623,0.008540362,-0.12130431,-0.18972328,-0.19305457,-0.08326618,0.08339334,0.09750681,0.13774675,-0.057764716,0.25472128,0.02429197,-0.19496086,-0.040175702,-0.014358531,0.045886487,-0.011767072,0.017098006,0.05279719,0.021255465,0.10194695,-0.10959369,-0.048379585,0.06664543,0.07175304,-0.10979544,0.046303973,0.13720189,-0.1896643,-0.12950681,0.06699593,-0.019868916,0.013952303,0.08167649,0.075329006,0.012122145,-0.22784956,-0.061607953,-0.057045747,0.119760685,0.050114017,0.1684283,-0.045113392,0.11894064,0.02700031,-0.027154356,-0.23661244,-0.029894266,0.116451785,-0.23281424,0.15508634,-0.13464268,-0.022176506
p19,0.008005458,-0.027190473,-0.010524918,-0.00984325,0.120480105,-0.03328827,0.06450128,-0.06530514,-0.014517003,0.19936112,0.041871548,-0.047615264,0.04061614,-0.122330695,0.074441604,0.08356305,-0.11368182,-0.007612955,-0.20238292,0.1721401,-0.0025357364,-0.059664268,-0.07540839,-0.174055,-0.008172042,0.054321453,0.028595872,0.034396783,0.0034193066,-0.056470625,-0.07633495,-0.00037800273,0.0867283,-0.019725181,0.0075847167,0.09042977,0.10798986,0.052995294,0.0031849744,0.093925424,0.06432528,0.105870716,-0.009558864,-0.00028533896,0.10947109,-0.113626,-0.017586563,-0.01054078,0.05498761,0.036417007,0.050478254,0.0717939,0.006719085,0.020026093,-0.10592754,-0.064071745,0.04742499,-0.073780924,0.038238015,0.11219793,-0.16584773,0.029543562,0.04577886,-0.0039087236,0.08115501,-0.058746506,-0.0017900574,0.03084171,0.030109128,-0.013251763,-0.02376931,-0.10607343,-0.16656518,-0.077506654,0.10968506,-0.04494982,0.012263442,-0.095322825,-0.09577398,-0.06443942,-0.0790438,-0.005106822,0.11986987,0.11400173,0.030138008,0.16102633,0.046664357,-0.14030568,0.03698791,0.0016877116,-0.04903123,-0.021171097,0.042628884,0.017668184,0.041145418,0.061091643,-0.04096981,-0.046012226,0.005659464,0.021709627,-0.109316625,0.045094304,0.051092368,-0.10299239,-0.014328073,0.028331596,-0.008782544,0.044263456,0.089011475,0.008744789,0.006286506,-0.1497087,-0.030944895,-0.001877008,0.05548275,0.03841967,0.13209592,0.010737633,0.06485675,0.04792231,-0.03421721,-0.12334374,-0.10233554,0.07124994,-0.12697019,0.038609557,-0.08177017,-0.012516195
p20,0.02260069,-0.0363462,0.25743523,0.26331195,0.2674081,-0.12172584,0.2769655,0.02376255,-0.163545,0.40172264,0.19985674,-0.30464998,-0.079638556,-0.09031496,0.21792763,0.223914,-0.2264031,0.0030883865,-0.027370289,0.42788213,-0.10032791,-0.072245285,-0.22292806,-0.31650946,0.05539023,0.06707567,0.03123697,0.15071644,0.08258412,-0.032445323,-0.3221273,0.033686973,0.098450586,0.17664815,-0.027197815,0.055827234,0.10094927,-0.09995918,0.0033344883,0.066531144,0.09487993,0.28544065,-0.061971247,-0.0809616,0.36824203,-0.41026807,-0.2530245,0.2097025,0.4555217,0.30935937,0.21861006,0.3007822,0.20214266,-0.075266264,-0.20329575,0.098286286,0.08881736,-0.00068059616,-0.21776031,-0.019203186,-0.3720683,0.39118776,0.0072632353,-0.11936608,0.39205533,-0.31049314,0.004735802,-0.050660495,0.10979706,-0.04650361,-0.009420161,-0.032692086,-0.515426,-0.2415285,0.20834725,-0.05733689,-0.116565965,-0.15185653,-0.36101952,0.2065425,-0.18786614,0.14765908,0.4461692,0.49086663,0.07718669,0.43929806,0.44516417,-0.4189651,-0.10359923,0.23029408,0.03598979,-0.26195484,-0.037903413,0.17327276,-0.17230225,0.27287695,-0.39062417,-0.23421706,0.025432967,0.12754105,-0.2125079,0.039711017,0.14451772,-0.15564744,0.069569,0.27445433,-0.09135132,0.14571103,0.16722816,-0.111001216,0.0046208366,-0.20658503,-0.049312644,0.020576224,0.07735317,-0.005065439,0.2621643,-0.16934006,0.25555518,0.15109628,-0.14008608,-0.26804793,-0.053893413,0.17421827,-0.37217125,0.18056762,0.06999319,0.047827937
p21,0.029856533,-0.032794457,-0.0064927144,0.011796953,0.25293943,0.0063811275,0.08951222,-0.06011296,-0.048740465,0.26532924,-0.051990256,-0.04463641,0.008065583,-0.07251794,0.08100443,0.09264246,-0.23591162,-0.08260277,-0.24658036,0.3396917,-0.10807861,-0.14434862,-0.07469907,-0.26282704,0.13065827,0.123982884,0.06777462,0.034107495,-0.023683487,-0.083235875,-0.07837257,0.0044221706,0.12517422,0.04565531,-0.03973184,0.0835756,0.07222209,0.07416707,-0.10522898,0.15548638,0.05571697,0.122160256,-0.012189003,0.07083362,0.10454531,-0.23440768,-0.108538084,0.06449766,0.1365203,0.031915236,0.0051183156,0.16081703,0.019232828,-0.055888966,-0.18573172,-0.028312739,0.017929027,0.07444435,0.03134722,0.021268703,-0.21902053,0.10547264,0.027390664,-0.01413799,0.16479284,-0.08889492,-0.13644074,0.01131439,0.06711401,-0.020707166,-0.01729079,-0.18733017,-0.2744147,-0.16379932,0.14533693,-0.11690486,-0.012060948,-0.11374833,-0.19464344,-0.19684188,-0.07903347,0.10160918,0.08442457,0.12097115,-0.052393835,0.26003838,0.030788867,-0.17935783,-0.032960292,-0.00042280013,0.06898884,-0.024257911,0.007853241,0.055597115,0.02139711,0.1113732,-0.120945014,-0.057657816,0.06924142,0.07082125,-0.1035534,0.05744325,0.138364,-0.1949041,-0.12530081,0.06941046,-0.025315912,-0.00927342,0.092248864,0.07721456,-0.0022729184,-0.2295474,-0.06839969,-0.04000943,0.119948655,0.036400236,0.16332957,-0.05195042,0.12035939,0.011901141,-0.02494959,-0.24627116,-0.019807983,0.12626807,-0.23308122,0.16056652,-0.12449429,-0.03200768
p22,-0.011042635,-0.1119581,0.11351996,0.17369813,0.28768945,-0.06479295,0.12536016,0.0149983205,-0.081689484,0.31762397,-0.006198877,-0.20599715,-0.019340817,-0.05724875,0.12745066,0.25663185,-0.2416758,-0.02531085,-0.21053113,0.4072276,0.054687817,-0.11738363,-0.21218504,-0.3570674,-0.022901323,0.16777922,-0.08430622,0.13333906,0.07487375,-0.114852756,-0.30065018,0.07725998,0.062036976,0.20786871,-0.02910254,0.15543965,0.06195582,-0.06710409,0.0061550653,0.066186786,0.06629699,0.2740699,-0.034633026,-0.012433081,0.2607361,-0.26697502,-0.16776627,0.15293467,0.28565565,0.13953702,0.24653748,0.18034914,0.14449123,-0.02099678,-0.20228106,0.029101986,0.10034701,-0.015229159,-0.23947157,-0.10367338,-0.36619362,0.27171716,0.08873428,-0.10633754,0.4159376,-0.22549646,-0.014123121,0.04366284,0.05795692,-0.12340719,-0.0049115396,-0.14869109,-0.44386867,-0.28134966,0.1801685,-0.05012295,-0.056007873,-0.14937575,-0.30804333,0.054389857,-0.17153877,0.13234393,0.2522182,0.40415707,0.033221215,0.40189075,0.30253813,-0.3029297,-0.042868316,0.22737674,0.11716904,-0.2000434,-0.027111102,0.016906496,0.03093115,0.21773471,-0.3088508,-0.31354824,0.0665447,0.124517314,-0.24660258,0.13742174,0.06723407,-0.03807465,0.050917435,0.14214782,-0.17488171,0.116792016,0.24924779,-0.011089539,0.015895436,-0.15081619,-0.045194037,0.10410046,0.005135369,-0.00095049426,0.18242039,-0.014892339,0.30281278,0.0332667,-0.14085531,-0.34519914,-0.07347947,0.17753191,-0.37245986,0.18599325,-0.03193346,0.030821245
p23,0.013634657,-0.03311294,-0.014310336,-0.022358008,0.21529135,0.0045364546,0.07636633,-0.07114216,-0.030002711,0.25843528,-0.019767478,-0.057962276,0.044395022,-0.10538429,0.07456579,0.06869669,-0.20215125,-0.07382837,-0.26786315,0.27009293,-0.07924004,-0.10755804,-0.08457446,-0.23338297,0.07758841,0.1126777,0.05875192,0.036739927,-0.045891732,-0.08986644,-0.079657525,-0.013879172,0.1369957,0.010011966,-0.034440674,0.09940953,0.09031676,0.08535374,-0.07118946,0.14281179,0.06872682,0.103601605,-0.0020551635,0.0542519,0.08968935,-0.189384,-0.044153795,0.026780501,0.09304355,0.024609108,0.015715674,0.13089912,-0.00915302,-0.02786367,-0.14552371,-0.05765171,0.035697952,0.00671606,0.058283012,0.070610896,-0.20452645,0.046054598,0.032766342,-0.015574647,0.11232965,-0.06723015,-0.08331205,0.01700493,0.039136928,0.008996766,-0.019743871,-0.16520238,-0.22302401,-0.12336302,0.13178688,-0.0912635,0.010055571,-0.112409234,-0.15747197,-0.16494612,-0.07460143,0.045686666,0.085154235,0.113109395,-0.036924586,0.21843705,0.016126651,-0.15900359,-0.016024988,-0.0146326255,0.006961598,-0.0014837396,0.04121599,0.028601054,0.03109784,0.1013256,-0.071402125,-0.029411469,0.057831746,0.065727875,-0.098595425,0.048446655,0.11387804,-0.17532331,-0.0937553,0.03599687,-0.00010511285,0.024791578,0.087375805,0.07162946,0.0071712695,-0.20030552,-0.0614855,-0.044508934,0.10591728,0.054956667,0.15697147,-0.013357033,0.08861601,0.02118449,-0.026582235,-0.18693963,-0.05766072,0.11446331,-0.19468477,0.10667521,-0.12049664,-0.009366399
p24,-0.03390482,-0.100783736,0.0867197,0.19098447,0.31063083,-0.07286274,0.09121881,0.0032035417,-0.009319161,0.25891903,0.043400116,-0.12780005,-0.038485795,-0.082016565,0.11567492,0.23789962,-0.21715207,-0.04261934,-0.19951403,0.48536542,0.0450722,-0.09758316,-0.1895944,-0.39132333,-0.008337307,0.17396483,-0.073081985,0.10542648,0.14575802,-0.066503376,-0.31001797,0.11333207,-0.027830662,0.16542223,0.02479072,0.14504907,0.11995333,-0.02975981,-0.030353174,0.08778161,0.068258196,0.3011242,-0.010430328,-0.017214365,0.2884605,-0.2324086,-0.18375784,0.171872,0.2872779,0.115086555,0.17758474,0.15012485,0.1368877,-0.03520351,-0.21231726,0.028497167,0.1348213,0.012659707,-0.15904379,-0.10579669,-0.298305,0.23928,0.017610574,-0.10732073,0.3755928,-0.26589704,-0.042926125,0.052823864,0.090654336,-0.13798703,-0.019651175,-0.18251885,-0.50027686,-0.28810608,0.19935039,-0.09074777,-0.10081334,-0.13731174,-0.29001817,0.0035994723,-0.16050369,0.119312935,0.27161932,0.42276856,0.02285348,0.42677894,0.3031415,-0.3181371,-0.030164206,0.21303506,0.16319099,-0.194884,-0.039920885,0.048014514,0.060747445,0.16813359,-0.32268876,-0.31709832,0.06503336,0.103181675,-0.25654128,0.16064483,0.12067711,-0.04594175,0.09978636,0.12413367,-0.1991695,0.04726784,0.21974717,-0.00038514013,-0.0077444697,-0.16831264,0.020543488,0.09254147,0.008209021,0.0063466304,0.15431179,-0.04694408,0.27953503,0.009042749,-0.091234066,-0.398383,-0.068452194,0.16149832,-0.36620203,0.15374407,-0.054175694,0.022586154
p25,-0.0017363913,0.0073068114,-0.0061513605,0.0036126021,-0.002996155,0.0028052032,0.0026825005,0.0020902446,-0.0027962802,-0.007715742,-0.0016670683,-0.0036763055,0.0053599784,0.00015640445,0.00053679105,0.0011237292,0.0012305733,-0.0022148015,0.0013950681,0.001781771,-0.0041197175,0.005644099,0.0025641732,0.0071829446,0.0068168575,0.002298125,0.0019320725,-0.005659746,0.002185435,0.0011940459,-0.004290291,0.006855,-0.0016043447,0.0028643245,0.00416259,0.0057681147,0.005418677,0.0069148773,-0.004913916,-0.0061992435,0.0073423265,0.0070756897,0.0029591788,0.0036666878,0.0021520741,-0.0026347404,0.0070386184,-0.0011233184,-0.0022228677,0.0030687265,-0.0015629642,0.0062408047,-0.0077985907,0.0022450835,0.0026914328,-0.00027498044,-0.00558923,-0.0018501701,0.0039759865,0.000120269135,-0.0006162934,0.004695342,0.005795392,-0.00694743,0.007652319,-0.0069632186,-0.0057759127,0.001509089,0.003955354,-0.00596873,0.0007239813,-0.0024296623,-0.0045664553,-0.0042701988,-0.0017004805,0.004756431,-0.0062542446,0.00767777,0.0050541796,-0.004243795,-0.0005790442,-0.0010314779,0.0009903237,0.0012909202,-0.0034794584,-0.0010827901,0.0042601675,0.006122821,0.0049404167,-0.004610395,-0.005163313,0.0072932895,0.0015233885,-0.0026317853,0.0035211276,0.0055029383,0.002165814,0.0022103228,-0.003202713,-0.0047148233,-0.0016037598,0.005255563,0.006381927,-0.003359939,-0.0042067096,0.00034266897,-0.004517773,-0.003893149,0.0014426187,0.0042867176,0.0076672332,0.0069370875,-0.0011124816,0.0034302287,-0.00662678,0.0018751323,0.0044744527,0.0015547397,-0.004554511,0.003612931,-0.007698153,-0.007752777,-0.006665484,0.005047261,-0.0071076024,0.0026157005,-0.0066583324,-0.00460748
p26,-0.033532556,-0.09719988,0.09755755,0.16980709,0.27165082,-0.107535794,0.11354324,-0.06357332,-0.039284572,0.31328577,0.067917,-0.19784993,0.018058842,-0.15494637,0.115205646,0.26057783,-0.16597198,0.03122527,-0.29044378,0.3890221,0.1386158,-0.073160216,-0.24040344,-0.3457607,-0.12948085,0.13815679,-0.10420944,0.14974573,0.11701425,-0.057934374,-0.25634038,0.081177115,0.051459126,0.123143755,-0.033091303,0.1752787,0.11813455,-0.05854157,0.023743477,0.107456595,0.09658083,0.27193117,-0.0051721884,-0.06436698,0.2712648,-0.17996389,-0.11492544,0.08178741,0.2133211,0.09609326,0.23084787,0.13418043,0.10375247,0.036322683,-0.20197548,-0.04753436,0.13839868,-0.12165942,-0.18213907,0.023630552,-0.37424433,0.16564174,0.06883723,-0.084076256,0.3464988,-0.19287214,0.063413784,0.023121288,0.010998809,-0.13393888,-0.027229244,-0.13211931,-0.4017337,-0.23807216,0.23505384,-0.05947039,-0.06329064,-0.17911457,-0.25686157,0.06499424,-0.14547826,0.05396358,0.26507112,0.37061444,0.10307509,0.39717507,0.26157787,-0.30310848,0.0021730093,0.21889578,0.029342402,-0.18474706,0.013166474,0.026149457,0.08729473,0.19313702,-0.22495797,-0.30546096,-0.0025366987,0.07497053,-0.2655355,0.16357474,0.030616589,-0.022892244,0.1369607,0.0961466,-0.13113688,0.15248312,0.26560566,-0.024515362,-0.003798269,-0.18340364,-0.028447574,0.14356297,-0.007874289,0.030419145,0.17433691,0.02099527,0.22830626,0.040356018,-0.122319445,-0.29025558,-0.17000785,0.16689092,-0.316772,0.10230595,-0.0630379,0.031467114
p27,0.02238581,-0.0439945,0.0077954894,-0.0013314587,0.19496053,-0.014985186,0.07441948,-0.051442713,-0.04033456,0.24464457,-0.0027833763,-0.072399676,0.017563645,-0.07932951,0.06968278,0.07967579,-0.17269039,-0.039020628,-0.23527685,0.28106573,-0.040076528,-0.10814118,-0.10654309,-0.22301039,0.03921868,0.103136666,0.028662577,0.05297281,-0.00914277,-0.08154414,-0.0963418,0.005242479,0.10794472,0.036182683,-0.024345761,0.0937971,0.090319395,0.037293192,-0.0504201,0.117392905,0.06778624,0.12739496,-0.012369451,0.026549518,0.13515683,-0.19246984,-0.06551752,0.035176784,0.1248241,0.05881478,0.048453774,0.13148643,0.03564327,-0.017471513,-0.13824253,-0.05134505,0.044896897,-0.004069872,0.008778235,0.056378253,-0.23100792,0.093729295,0.029059649,-0.023857154,0.17052332,-0.09601616,-0.044321384,0.013208782,0.037514932,-0.017815288,-0.0040353322,-0.13151376,-0.25722376,-0.12133552,0.12799224,-0.083563216,-0.009595851,-0.11019612,-0.15728487,-0.109473206,-0.10420337,0.04333364,0.12043556,0.16019794,-0.007643567,0.22036746,0.07186403,-0.17871335,-0.002910427,0.020900538,0.01273969,-0.040409565,0.014590618,0.040967617,0.028254922,0.10428432,-0.103677064,-0.07626905,0.036839306,0.05134268,-0.11700092,0.050466232,0.0883601,-0.14331484,-0.050987296,0.07203766,-0.007103441,0.038786594,0.1124596,0.038762156,0.0046923724,-0.18458286,-0.04964424,-0.013879738,0.08031289,0.053628214,0.14680955,-0.019284707,0.11634887,0.029239595,-0.04113775,-0.18745789,-0.073587626,0.11403166,-0.20414026,0.09594817,-0.08750613,0.0035601456
p28,-0.023939978,-0.06331295,0.08279539,0.12983166,0.27886721,-0.047671642,0.09349066,-0.009820398,-0.050961684,0.2590974,-0.030024547,-0.14473005,-0.0133709945,-0.056453675,0.09897329,0.17637809,-0.21460432,-0.048752766,-0.19243473,0.38106048,0.0050874287,-0.10284055,-0.15432957,-0.2836259,0.060288474,0.14799906,-0.02394469,0.10159918,0.07631161,-0.06549648,-0.18356511,0.06684087,0.04147102,0.12452087,-0.026477514,0.10746358,0.050259344,-0.0019248726,-0.061130382,0.09378541,0.034645114,0.23011284,-0.040869225,0.02510267,0.18937595,-0.23463206,-0.13103938,0.13738446,0.23555994,0.09327752,0.1327831,0.15994531,0.10219686,-0.045470674,-0.18110102,0.015262284,0.04261689,0.026113765,-0.14494841,-0.06626922,-0.2814884,0.19579262,0.059822947,-0.076254144,0.2981476,-0.15645503,-0.051331054,0.0155850565,0.06501992,-0.085620776,-0.00572146,-0.16673312,-0.3704433,-0.24598566,0.14585072,-0.07845658,-0.07286236,-0.1112337,-0.260599,-0.035198126,-0.11851571,0.121030115,0.20631732,0.288252,-0.011254815,0.3312462,0.17941077,-0.2578768,-0.049163662,0.12962419,0.09630484,-0.12523733,-0.013854745,0.021280069,0.02889899,0.16870429,-0.24932805,-0.22548188,0.06704151,0.106104806,-0.17991447,0.112244725,0.08047293,-0.05566906,0.018188974,0.10440653,-0.1536588,0.051043615,0.18363623,0.033789236,0.0008784325,-0.19488268,-0.033742514,0.046878412,0.03213535,-0.0038015412,0.12847391,-0.052457817,0.22266883,0.018346066,-0.0684991,-0.3220682,-0.024095355,0.12941895,-0.30890834,0.17680891,-0.07591384,0.036564138
p29,-0.024925794,-0.089865066,0.06487637,0.10219451,0.23737358,-0.07475259,0.097271286,-0.035962004,-0.03395169,0.2828569,0.047217965,-0.13116454,0.017815342,-0.10623364,0.09100781,0.18851997,-0.17290802,-0.0411988,-0.24005403,0.35501415,0.056272693,-0.073611915,-0.16931525,-0.29023004,-0.024484716,0.1355555,-0.03734192,0.11515614,0.069764815,-0.05638804,-0.17997454,0.049403116,0.06071849,0.07160568,-0.014123206,0.14847855,0.096716054,0.031534526,-0.002528838,0.1261591,0.050425928,0.18997103,0.019323464,-0.016031047,0.20753582,-0.19000998,-0.089656256,0.08214906,0.16053362,0.07553555,0.13766797,0.13616896,0.08321869,0.012275766,-0.16636327,-0.048933625,0.11344093,-0.06025356,-0.085027665,0.030179568,-0.3172412,0.10779554,0.032237165,-0.079837926,0.27160987,-0.16201708,0.0126151685,0.026831878,0.04512442,-0.074807815,-0.036107685,-0.120122395,-0.3288264,-0.16689794,0.17187598,-0.08777931,-0.050007086,-0.14304529,-0.2467307,-0.0137435105,-0.13801214,0.05016353,0.21769738,0.2760434,0.053321976,0.3331534,0.17392118,-0.26196027,-0.012408772,0.10040268,0.015588843,-0.12541227,0.021048624,0.057324782,0.07579405,0.13725789,-0.20832834,-0.20339577,0.032098297,0.067330346,-0.22456563,0.13620846,0.07948484,-0.07928276,0.06040438,0.0815339,-0.0969417,0.06834046,0.18780643,0.012349434,-0.01495166,-0.19925174,-0.043307833,0.059984006,0.027099427,0.035400122,0.17102003,0.0012839872,0.16237797,0.04076814,-0.07239625,-0.27107143,-0.110157,0.1390273,-0.26072663,0.09647406,-0.098804556,0.026205754
p30,-0.0021983264,0.0067203753,0.00065103266,-0.0006270427,-0.0019622454,0.0042186743,-0.0034469506,-0.0068280166,-0.005320875,-0.0047938023,0.004600144,0.0061251326,-0.0013894252,-0.0046913764,0.0005008057,-0.001988383,0.002905422,0.001153687,-0.0059873676,-0.0062991027,-0.0046317643,0.002751871,0.00175271,0.007105395,-0.0044770846,0.0026468448,-0.0019948184,0.0053775394,0.0061219065,0.00070478674,0.00220865,0.0013560448,0.0074651428,-0.00021700561,0.0004250966,0.001572445,0.0074166507,0.00093375985,-0.007429012,-0.0035642618,0.0039366214,-0.007010022,0.005877329,-0.000901998,0.0014883205,-0.005031203,-0.00044604205,0.005910215,0.00063270144,-0.0037493333,-0.0011562137,-0.0056666406,-0.005014525,-0.002378041,-0.004443555,0.00015086308,0.0047911527,-0.0010180846,-0.0044174613,0.003949465,0.0072870925,0.007483991,0.002365197,0.00445702,-0.0033675432,-0.005078491,0.00057405233,-0.0076898364,-0.0024564099,-0.0022842912,-0.0054110084,0.0024522701,0.00023628026,-0.0043976353,-0.005050119,-0.00025132578,-0.007258868,0.0074880766,-0.00035329908,0.0011998145,0.003836602,0.005881477,0.0077485833,0.0039201844,0.0050709005,0.0036865203,0.005144546,0.0065065,-0.0070044147,-0.005810098,0.0069112936,0.0027857637,-0.006133673,0.0021223119,0.0033622477,0.0058871796,-0.0021112952,0.0027465746,-0.0053567635,-0.0035544615,0.0046933386,0.0022939462,0.0029161405,-0.00088861026,0.003845987,-0.0021254634,-0.003409802,0.0012701666,-0.0074594086,0.006812227,-0.005144976,-0.0034012068,-0.003047417,0.000518064,0.0061081024,-0.0042982474,0.0053768195,-0.0030452553,-0.0076585915,0.0076168645,0.0064009903,-0.0026445445,-0.0035367347,-0.00075183343,-0.0069481246,-0.0022629844,0.006378961,-0.0063572973
p31,0.0035089336,-0.092550136,-0.014201806,0.026397035,0.21726696,-0.051804617,0.037262306,-0.10471955,0.005009546,0.2801353,0.032311574,-0.0870942,0.074726336,-0.19294845,0.057462562,0.13738957,-0.1261233,0.010746018,-0.34483346,0.25218716,0.084032565,-0.11289376,-0.15368941,-0.25618863,-0.11067855,0.08934641,-0.03143538,0.07620797,0.0026029763,-0.06675029,-0.09359548,0.02513006,0.124239355,-0.004030692,-0.040723722,0.18841001,0.14557274,0.042833976,-0.0030146602,0.1907331,0.11306495,0.12690012,0.028969282,-6.855992e-05,0.12542696,-0.09425207,-0.0049341107,-0.014118075,0.021669487,-0.013397394,0.10108232,0.06374069,0.0150258625,0.06958793,-0.17009123,-0.120622955,0.11176201,-0.1376072,0.0005703814,0.17926955,-0.2865735,-0.0231726,0.02020245,-0.008168316,0.15538538,-0.080709375,0.04393705,0.00868145,-0.028940061,-0.052859638,-0.04776684,-0.108534195,-0.20497897,-0.10747061,0.19602743,-0.099916115,0.0027951181,-0.15372427,-0.14539692,-0.097408466,-0.085416645,-0.01545431,0.09399434,0.15620047,0.05845067,0.22852723,0.034872536,-0.19491324,0.030606233,0.02519763,-0.060813185,-0.027697595,0.07825737,0.05976376,0.13416746,0.100357935,-0.034905907,-0.12256072,-0.0011903491,0.047168516,-0.16007231,0.09667997,0.060930636,-0.11991501,0.037424408,0.032880776,0.018925916,0.09383657,0.19162029,0.012689011,-0.01985945,-0.20156774,-0.08364724,0.047096588,0.08910561,0.0976675,0.17483798,0.082802415,0.0807824,0.008587564,-0.052748967,-0.15124147,-0.16758429,0.13010961,-0.13178955,0.009271356,-0.10952224,0.0036547591
p32,0.0042936476,-0.034374107,-0.0024113574,-0.01573729,0.13025042,-0.042588383,0.071514934,-0.08451649,-0.011134022,0.22944088,0.046702627,-0.05839414,0.046728518,-0.13339251,0.07859351,0.091184616,-0.111081734,0.0037358836,-0.23128006,0.17988725,0.013753982,-0.057499923,-0.09961429,-0.19123562,-0.023834158,0.07065689,0.0059816763,0.048632838,0.016018268,-0.06462458,-0.07734082,-0.004530303,0.10241849,-0.021155853,0.0032088743,0.100722365,0.11981816,0.057174053,0.006791264,0.11500969,0.075948045,0.11105348,0.004968282,-0.0016739755,0.11541559,-0.1287094,0.0037975344,-0.021560425,0.050189495,0.04286056,0.055728443,0.065706916,-0.0005991378,0.02708021,-0.10074748,-0.07999467,0.05880328,-0.09125948,0.036745407,0.1354688,-0.18641889,0.018929007,0.045751654,0.0009493888,0.085168965,-0.05001297,0.017236529,0.028099455,0.012635589,-0.013874866,-0.022480754,-0.10775952,-0.18101047,-0.0753841,0.12474994,-0.057346925,0.005956531,-0.111897305,-0.10089441,-0.070197955,-0.08928909,-0.021050248,0.1308332,0.1330691,0.041746825,0.15662563,0.03852825,-0.16219595,0.03489895,0.011583223,-0.06432464,-0.032760534,0.049051836,0.01867085,0.059319686,0.07127034,-0.034275386,-0.046589438,-0.0039779404,0.033623356,-0.12614034,0.059547313,0.052188303,-0.0921094,0.004089994,0.036932535,-0.0030543422,0.07022426,0.09784526,0.016120419,0.011244401,-0.15571336,-0.039018355,0.0053701955,0.05136961,0.056009,0.14286594,0.025918093,0.07788906,0.042233832,-0.043506302,-0.12388221,-0.121983334,0.08612033,-0.13315806,0.022698123,-0.08344887,-0.0060884426
p33,-0.0117279645,-0.049946763,0.008491091,0.002530362,0.14668529,-0.057747304,0.08452337,-0.08996336,-0.013319666,0.26427937,0.064679846,-0.08300788,0.040889394,-0.16279557,0.10021175,0.123489484,-0.112790056,0.0022200663,-0.24535088,0.20480956,0.044575963,-0.06262573,-0.12659197,-0.2272984,-0.06394402,0.08765793,-0.008653815,0.06696299,0.04471324,-0.07523153,-0.12637335,0.00658508,0.088297434,-0.0085744755,0.004164913,0.12416494,0.13804863,0.036362916,0.028835332,0.10091726,0.09269141,0.1411452,-0.0012969588,-0.024953207,0.16128604,-0.13500093,-0.003912337,-0.0134977,0.06705329,0.06670209,0.10007886,0.08937563,0.029438352,0.0329993,-0.12569198,-0.075638935,0.08180352,-0.11306166,0.012141979,0.12859151,-0.23116581,0.041146558,0.06515352,-0.017881302,0.13454857,-0.07885127,0.03111089,0.03580789,0.012823877,-0.03181037,-0.03337905,-0.11390787,-0.23079067,-0.09871114,0.16320401,-0.040633023,0.0065557365,-0.12656014,-0.1256162,-0.033038728,-0.12539488,-0.013620195,0.17915513,0.18620111,0.060225796,0.1898652,0.077913515,-0.19402826,0.045487292,0.048873827,-0.075488254,-0.059921328,0.045201704,0.017494103,0.072641544,0.0831966,-0.06687633,-0.08802202,-0.010814508,0.040838413,-0.16630171,0.08614606,0.033282,-0.09016883,0.02791503,0.052662883,-0.028230865,0.08753247,0.1339829,-0.005693044,0.015515112,-0.18087916,-0.02449379,0.036154084,0.029366866,0.047756888,0.1627924,0.015577607,0.10590278,0.055450574,-0.06378157,-0.14305273,-0.14871858,0.09553238,-0.17274629,0.02660005,-0.09232424,0.00031604734
p34,-0.008617706,-0.11843687,0.13919342,0.21961492,0.30148327,-0.0797196,0.1378048,0.019362407,-0.055455703,0.28504607,0.052165534,-0.20092303,-0.054070722,-0.065086626,0.13183078,0.25059134,-0.2489282,-0.038367372,-0.17837717,0.45903978,0.040156916,-0.08352717,-0.19622095,-0.3868541,-0.003119597,0.16534844,-0.056105796,0.1401965,0.1396066,-0.05603029,-0.30689365,0.09878231,0.010360776,0.17752044,-0.02373112,0.13145693,0.09545065,-0.06732348,0.008747715,0.070154265,0.04989175,0.28349006,-0.017278505,-0.048803657,0.30029136,-0.27837566,-0.21293555,0.19393049,0.31988612,0.14470328,0.2207206,0.1770831,0.1795994,-0.018637003,-0.22513475,0.03554374,0.1319789,-0.003123391,-0.20321469,-0.08369092,-0.3355121,0.29134038,0.051844217,-0.10878963,0.43516347,-0.26514527,-0.01656572,0.018430568,0.06871151,-0.13284676,-0.03321843,-0.15729475,-0.50253814,-0.28483942,0.19506614,-0.08805952,-0.072942145,-0.13700725,-0.3336448,0.055386644,-0.17091326,0.13088648,0.3025994,0.4356644,0.033401832,0.46753377,0.34891835,-0.34922114,-0.03813433,0.23196104,0.13798748,-0.2033233,-0.050042775,0.073704846,0.00644166,0.22423023,-0.35090554,-0.34062192,0.050749958,0.104566306,-0.2575303,0.14717558,0.10706463,-0.034308694,0.08383312,0.1469216,-0.1802092,0.093013115,0.23711494,-0.03154105,-0.007164022,-0.16263193,0.00272955,0.10267464,-0.013976023,-0.005928818,0.19367515,-0.05133213,0.3100428,0.031164987,-0.11253007,-0.38417023,-0.07240929,0.18937013,-0.38125816,0.16894819,-0.024217278,0.044865772
p35,-0.0035410507,-0.08374575,-0.011875301,-0.04689934,0.15459533,-0.087436385,0.08754047,-0.11901846,0.032207888,0.3416323,0.07648913,-0.12024363,0.09257297,-0.20556867,0.10658696,0.1425439,-0.11578537,0.06205077,-0.3336024,0.17207745,0.09201308,-0.12640128,-0.15167901,-0.22550724,-0.12886459,0.105949596,-0.002049572,0.08553991,-0.0018301697,-0.07733179,-0.09955809,-0.0012693589,0.15390487,-0.00923203,-0.018625544,0.171698,0.16334613,0.0793283,0.08693972,0.13142343,0.08198695,0.14473785,0.029576518,-0.024662312,0.189858,-0.14123178,0.070141785,-0.046480726,0.06641315,0.039112523,0.17580806,0.10281573,0.0019848812,0.09095761,-0.13682038,-0.12115263,0.1248118,-0.1708515,0.0020785015,0.18262777,-0.30731237,-0.03581611,0.12842141,-0.017114546,0.12871468,-0.043929987,0.054901175,0.029107012,0.0046463683,-0.027898857,-0.040962376,-0.12440605,-0.2006423,-0.06937045,0.19066252,-0.014572977,0.010149073,-0.16604224,-0.120365486,-0.07203897,-0.10850137,-0.042752758,0.152227,0.16795634,0.10727322,0.20612471,0.04182131,-0.18095946,0.093274206,0.053064346,-0.11650156,-0.032466907,0.074133396,-0.031722587,0.1492071,0.100311086,0.030369166,-0.11368908,-0.038770646,0.10353631,-0.17949519,0.122924164,0.0112756435,-0.07180694,0.009694603,0.044175666,0.0074168183,0.17334972,0.16443391,-0.015187604,-0.006990814,-0.2055149,-0.02801038,0.060810905,0.042633954,0.1095014,0.18825896,0.08766401,0.0983201,0.08419374,-0.10015899,-0.12591317,-0.19193819,0.097743824,-0.13947308,0.062247552,-0.12113154,0.030214002
p36,-0.0060288203,-0.09473121,0.00798819,0.0047044093,0.18365164,-0.09510652,0.07904597,-0.10851084,-0.0012985131,0.32413632,0.055663064,-0.14460643,0.09903014,-0.20550546,0.06436234,0.17599611,-0.13136983,0.0518635,-0.39027914,0.22532822,0.1590924,-0.08493687,-0.1704779,-0.28134006,-0.16502395,0.119546756,-0.087526515,0.12534536,0.021187358,-0.089883976,-0.14800045,0.0020786198,0.1286937,0.030980602,-0.042876806,0.21102904,0.1450375,0.04156905,0.032171387,0.15622297,0.1092968,0.15192452,0.028626526,-0.023190878,0.17177375,-0.0964614,0.013391362,-0.03569782,0.04421589,0.0364406,0.16847707,0.074252725,0.023778742,0.06522957,-0.15714708,-0.14613578,0.13408189,-0.19283931,-0.04552274,0.18476535,-0.34463054,-0.016919227,0.07640534,-0.033604708,0.205895,-0.074928045,0.093185775,0.017166998,-0.044542227,-0.068291284,-0.015472416,-0.11228224,-0.22834356,-0.11630314,0.1845537,-0.06611486,-0.0073865326,-0.17266342,-0.14693455,-0.06205156,-0.10872351,-0.036327463,0.14763944,0.20037575,0.09931073,0.24780264,0.06778269,-0.22294098,0.040596105,0.08068982,-0.101584196,-0.059287462,0.06749359,0.013784744,0.16567878,0.121416904,-0.052266676,-0.15808615,-0.02862599,0.04809567,-0.20778316,0.113910034,0.020024203,-0.06921275,0.06619135,0.028648498,-0.0064549525,0.14760381,0.21834624,0.008275694,0.007561852,-0.19076824,-0.08476875,0.07749895,0.046004113,0.08955889,0.18773983,0.11124978,0.11662442,0.04126753,-0.0868346,-0.14720632,-0.19016306,0.12386979,-0.15542397,0.040355388,-0.109946296,0.02335223
p37,-0.0035281787,-0.104554944,-0.002955389,-0.01618099,0.18442981,-0.107696705,0.068903595,-0.119385906,-0.017261682,0.31763366,0.05352516,-0.12949823,0.09761002,-0.20749305,0.069846354,0.14665514,-0.14328933,0.017596664,-0.40128604,0.23804203,0.13488708,-0.10584155,-0.20079651,-0.27923304,-0.14673065,0.10633524,-0.07395896,0.11208243,-0.005380062,-0.101322934,-0.12908617,-0.010429938,0.15413399,0.03199458,-0.045982998,0.21123852,0.13792504,0.030548029,0.012523394,0.16754362,0.10853811,0.1434898,0.03118419,-0.020644948,0.1591845,-0.11125469,0.029805712,-0.056899372,0.019846514,0.005475386,0.16175102,0.08566633,0.014496444,0.07761414,-0.154774,-0.13882467,0.1394027,-0.19121179,-0.0365029,0.17926952,-0.34912542,-0.024753692,0.086343005,-0.06594555,0.21349543,-0.057969894,0.091028616,0.022716356,-0.051086437,-0.057005264,-0.025219511,-0.111932255,-0.21863921,-0.09278621,0.18892874,-0.06946429,-0.008335273,-0.16618302,-0.14836085,-0.09255835,-0.11939034,-0.057703048,0.14037003,0.18058799,0.10246572,0.22210579,0.038224492,-0.20806824,0.05485389,0.0571749,-0.10821948,-0.042277947,0.084961124,0.033897184,0.16531281,0.12900631,-0.031294934,-0.118965685,-0.01784446,0.07025396,-0.20394044,0.110186696,0.0065820026,-0.08239527,0.048562795,0.018488165,0.023026329,0.14154156,0.18638524,0.014814745,-0.009153581,-0.18235382,-0.09840292,0.072391786,0.04451544,0.08055415,0.2024174,0.12347159,0.0951364,0.027341241,-0.060987737,-0.13946868,-0.19880636,0.11968207,-0.15885764,0.029450927,-0.10549776,0.02074785
p38,-0.007821731,-0.061772667,0.00067872636,-0.004533409,0.16103287,-0.06199446,0.056185238,-0.077032566,-0.016621277,0.23741356,0.04710422,-0.083927296,0.060506947,-0.14862588,0.055613212,0.11335104,-0.111220725,-0.0009060318,-0.2660568,0.20812717,0.05814259,-0.07483521,-0.123337306,-0.20521794,-0.0716225,0.091038026,-0.02891121,0.07813778,0.006981731,-0.05414498,-0.10739179,-0.0015438353,0.09808176,0.007884017,-0.019144855,0.13310881,0.117719226,0.04457216,0.009928128,0.1316342,0.07651093,0.11557245,0.017200233,-0.00481039,0.12812273,-0.10143876,-0.0073750103,-0.009040465,0.044744466,0.020349974,0.09745656,0.06530649,0.010758801,0.034721162,-0.1215326,-0.09581595,0.10096502,-0.11374516,-0.011242288,0.12918553,-0.2433969,0.0015352664,0.047455214,-0.029820863,0.13289678,-0.06367344,0.02915525,0.016636515,-0.01124924,-0.043698814,-0.02583343,-0.093808055,-0.18535596,-0.085394695,0.13563822,-0.06394416,-0.006681259,-0.1115888,-0.12870422,-0.05923372,-0.078248955,-0.019429041,0.12040138,0.14801073,0.05466285,0.19570991,0.049684007,-0.1684627,0.025630035,0.04667274,-0.05149658,-0.041481834,0.0502608,0.022321865,0.09674157,0.08401268,-0.050405346,-0.09625155,-0.002888246,0.03834858,-0.14604613,0.080604546,0.044929918,-0.08286386,0.030077387,0.023927376,-0.006327063,0.08037862,0.14190675,0.005826246,-0.007864845,-0.14675412,-0.0525678,0.041376136,0.048961945,0.05291986,0.13726445,0.06185112,0.08028303,0.029189048,-0.055222362,-0.12492829,-0.13379472,0.09339014,-0.12946907,0.027075054,-0.0886486,0.015069751
p39,0.06160392,0.0015936887,-0.14590049,-0.16685504,0.27631173,0.051762436,0.061866548,-0.14860547,-0.019921763,0.3611081,-0.010754904,0.044710126,0.08329346,-0.19550061,0.07596539,-0.0065722447,-0.26998898,-0.13442281,-0.38215175,0.34366956,-0.2540871,-0.17806128,-0.025024045,-0.23428279,0.21807592,0.082800694,0.21282582,-0.040254302,-0.14024675,-0.111520976,0.031452335,-0.080390036,0.2310466,-0.13930024,-0.011666872,0.07354167,0.19266772,0.21294154,-0.15933636,0.273368,0.11994186,0.047581773,-0.01482876,0.15938985,0.040679894,-0.2680915,-0.0061433483,-0.02749125,0.016863635,-0.049143262,-0.102429755,0.122434594,-0.12185795,-0.025516931,-0.19580217,-0.15460344,-0.0064956653,0.010713497,0.28625068,0.24188037,-0.19282039,-0.015814386,-0.013351901,0.06516404,-0.06720561,-0.00793864,-0.1808048,0.02365292,0.07432076,0.092019126,-0.0684938,-0.24037647,-0.15863203,-0.098432295,0.17449786,-0.15626462,0.076327756,-0.16475864,-0.1280697,-0.36895669,-0.06407303,0.034010496,-0.0017509122,-0.024026025,-0.08939349,0.17602071,-0.1367967,-0.1744712,-0.00090081827,-0.20105347,-0.055347815,0.097084954,0.08341713,0.095630534,0.041161254,0.06848347,0.07364786,0.15419424,0.09414115,0.08014424,-0.02939983,-0.02655651,0.20252816,-0.35812762,-0.26332262,0.008062903,0.14749427,-0.025081133,0.045420166,0.106553786,-0.008383046,-0.32608086,-0.11280108,-0.17114632,0.26230383,0.11824909,0.20091584,-0.05335227,0.013797728,0.02325523,0.0012070666,-0.15104371,-0.06088372,0.10189053,-0.15915446,0.08182141,-0.19578023,-0.07713697
p40,0.0049070134,-0.045394998,0.006468834,0.023705395,0.21573667,-0.017984614,0.09043137,-0.044171873,-0.0346819,0.25842193,0.009870024,-0.07788893,0.01140771,-0.08156283,0.0888112,0.10377755,-0.19276597,-0.056506023,-0.21660835,0.31092685,-0.06013721,-0.093111634,-0.096402854,-0.25385243,0.072337516,0.103904605,0.046245027,0.05975555,0.01709403,-0.073776804,-0.12600388,0.011422506,0.09232836,0.041580465,-0.008654986,0.08492826,0.099894084,0.05400792,-0.045323092,0.1259956,0.061243817,0.14382203,-0.01217283,0.037788514,0.15630855,-0.2147153,-0.087953396,0.07555415,0.1490616,0.065120265,0.046153747,0.13093896,0.03432424,-0.03413619,-0.14939839,-0.03893341,0.051895436,0.0062675863,0.0079619475,0.040820304,-0.2151731,0.11029179,0.03501672,-0.016100641,0.16548231,-0.11513557,-0.07146326,0.023113132,0.056370012,-0.030537356,-0.030573612,-0.15859103,-0.27679715,-0.16728505,0.13774782,-0.08007413,-0.012379403,-0.11803712,-0.1936398,-0.1009447,-0.0969164,0.061658412,0.15921909,0.18441844,-0.020386461,0.25341183,0.09790825,-0.20460159,-0.016913878,0.04782335,0.028023517,-0.054046012,0.007487178,0.0503435,0.017096475,0.10705112,-0.13699877,-0.09353929,0.056300588,0.059283547,-0.13365836,0.07103151,0.11423374,-0.13075764,-0.061555546,0.0713214,-0.05325254,0.034011733,0.099003784,0.029343,-0.0049928566,-0.20003526,-0.03179759,-0.00576643,0.082553566,0.036954124,0.14073871,-0.045380525,0.12622944,0.04085866,-0.04111468,-0.23579504,-0.05225282,0.114682786,-0.23889382,0.11174778,-0.106525704,-0.0051342007
p41,-0.024116205,-0.08591606,0.0045368066,0.004267109,0.17804492,-0.0681633,0.07120847,-0.09247554,-0.022477,0.29341605,0.03385467,-0.112575345,0.080774456,-0.1851588,0.0766406,0.14507511,-0.10640943,0.016671207,-0.33957866,0.22439978,0.08098469,-0.086461656,-0.15804997,-0.24269046,-0.11182437,0.097990476,-0.0421598,0.113147646,0.0010936537,-0.085917786,-0.12670642,0.015956793,0.11707172,0.016196078,-0.043385316,0.16201477,0.13528836,0.029103415,0.00954132,0.13937852,0.10480272,0.13400245,0.0023861767,-0.013102826,0.15325858,-0.10914296,0.017855318,-0.024220143,0.03327072,0.03904198,0.12354563,0.08898724,0.014629164,0.06669361,-0.14663588,-0.12586623,0.10767672,-0.13341436,-0.03478285,0.14380413,-0.30389977,0.002320896,0.06589479,-0.0391485,0.16797672,-0.0657804,0.048296012,0.021432178,-0.029981913,-0.048779756,-0.018473871,-0.12496979,-0.21126658,-0.10657677,0.17201573,-0.05100294,0.0022285073,-0.15596768,-0.13306206,-0.05346378,-0.09913569,-0.019247329,0.1375944,0.15888605,0.08354627,0.21969736,0.054096617,-0.18541045,0.046942916,0.05257115,-0.08235409,-0.058517378,0.07451023,0.009843994,0.13464075,0.10880155,-0.031918272,-0.106179476,-0.01585158,0.057737503,-0.17423189,0.090247914,0.010041254,-0.08409409,0.028658714,0.045035455,-0.014931234,0.12631337,0.18565163,0.0027183462,0.016382605,-0.1893268,-0.05702807,0.06594108,0.04255045,0.081353374,0.16959432,0.070694976,0.11410803,0.03383725,-0.060887966,-0.15530859,-0.15456325,0.10678541,-0.15875632,0.047757212,-0.10600956,0.025905453
p42,0.0028061094,-0.059497796,-0.009809347,-0.017190102,0.17967945,-0.048037708,0.057060767,-0.08534741,-0.010450639,0.27241233,0.032047268,-0.0734798,0.063397184,-0.16559322,0.059280436,0.11017302,-0.1451032,-0.019373823,-0.2989094,0.24750726,0.01713564,-0.095205985,-0.12433369,-0.2292492,-0.037196238,0.0986008,-0.003173151,0.068770654,-0.013324728,-0.075771324,-0.09064096,0.00172523,0.14063871,-0.0077971867,-0.010819915,0.14048387,0.13936666,0.05948796,-0.008396595,0.15109165,0.0915915,0.10683689,0.009248318,0.014206072,0.12561323,-0.13480727,-0.01847887,-0.023048496,0.0385375,0.031448666,0.067836635,0.08465529,-0.0040882276,0.040026817,-0.13959506,-0.10365765,0.09032371,-0.09931975,0.04279292,0.14632614,-0.24678604,-0.0074476777,0.040554933,-0.020309106,0.12861146,-0.06828786,0.0031341612,0.012660063,0.0067546717,-0.027774416,-0.039167203,-0.12545693,-0.20501094,-0.100475155,0.1569357,-0.08045173,0.014675968,-0.14078033,-0.13958485,-0.11610844,-0.09100882,-0.009417848,0.12311188,0.12805566,0.042997077,0.21565796,0.03308287,-0.17587861,0.030336741,0.016575322,-0.06727471,-0.010960765,0.062523395,0.045681868,0.088557206,0.10004593,-0.050110873,-0.05787877,0.0067259194,0.042889014,-0.14428212,0.068096645,0.058243886,-0.12844919,-0.011493155,0.03336507,0.023069708,0.07774844,0.13290118,0.021489853,-0.011394531,-0.18563606,-0.059912737,0.016826816,0.07281543,0.06894137,0.16586801,0.03873672,0.08430822,0.02883441,-0.045557283,-0.14531203,-0.124304935,0.10618385,-0.14533791,0.038413886,-0.11676129,0.012454372
p43,0.017181681,-0.06995297,0.033012837,0.061708797,0.25792,-0.020631649,0.072708435,-0.012964431,-0.048708417,0.22630912,-0.053049408,-0.13240087,0.012166941,-0.014324985,0.11207482,0.057764694,-0.17678706,0.0064981864,-0.1624902,0.3461382,-0.048961766,-0.12035262,-0.09722566,-0.2605992,0.09817269,0.14732152,-6.4289496e-05,0.036806352,0.011753428,-0.123650454,-0.18017057,0.033169866,0.059790507,0.16767947,-0.0019381724,0.069813095,0.0875479,0.017488088,-0.04578105,0.094142586,0.10963049,0.1852493,-0.0015654019,0.02625807,0.212495,-0.26711977,-0.06840915,0.07616237,0.22787108,0.11252943,0.13825874,0.15479915,0.17554374,-0.08872424,-0.10486098,0.0046446514,0.053042386,0.02253898,-0.06619928,-0.023126429,-0.26141194,0.19760557,-0.0003420799,0.009223505,0.34967977,-0.18450518,-0.06653143,-0.008017785,0.09240825,-0.068838134,0.025004905,-0.08431067,-0.4276573,-0.14406714,0.11176575,-0.11438552,-0.03626579,-0.08025194,-0.23881191,-0.07433404,-0.17576888,0.09535077,0.16642216,0.26087692,-0.014960711,0.28068307,0.16676098,-0.26035574,-0.05138966,0.089405075,0.10421168,-0.09171094,-0.024422709,0.054582372,0.019433875,0.12776464,-0.21964623,-0.16852751,0.045096077,0.09509583,-0.1175375,0.067592494,0.12776774,-0.162857,-0.011939328,0.14953329,-0.09448881,0.019101202,0.1330721,0.057795376,0.052034583,-0.15932027,-0.036995612,0.0149374725,0.07268869,0.03669795,0.15842961,-0.057393905,0.23861907,0.052751962,-0.008914522,-0.25795546,-0.06383256,0.14230151,-0.32790586,0.13561305,-0.08007563,-0.01196225
p44,-0.009285004,-0.084442936,0.044146016,0.074787006,0.23273326,-0.041087687,0.08811845,-0.037280124,-0.052980114,0.25007844,0.008500042,-0.16379084,0.044644,-0.048668694,0.10618581,0.08981731,-0.14325503,0.04307726,-0.18540844,0.3270356,-0.003976439,-0.091374174,-0.11747593,-0.26004985,0.029803263,0.13182744,-0.016762914,0.07494929,0.032941874,-0.103164524,-0.19720511,0.03360543,0.073007084,0.14921068,0.013728277,0.094116256,0.111870944,-0.0015721655,0.010693033,0.08841392,0.10773453,0.19574873,-0.01978455,-0.01919189,0.20906503,-0.24674374,-0.04431702,0.050005723,0.2132666,0.13629213,0.1849946,0.14841957,0.16577797,-0.048752513,-0.100186735,-0.014580044,0.10256054,-0.040495396,-0.09225061,0.00914532,-0.28554714,0.16558458,0.014140818,-0.0074295066,0.35080233,-0.17033368,-0.011113619,-0.008520817,0.056363225,-0.079739265,0.025296217,-0.058549136,-0.4144928,-0.12658718,0.13001496,-0.075564295,-0.040930226,-0.10832213,-0.22749755,-0.018166432,-0.17462532,0.06128543,0.2157705,0.27339852,0.052424226,0.28424963,0.183708,-0.27851743,-0.04545938,0.11953434,0.0649906,-0.115165286,-0.0019517381,0.042635053,0.024200551,0.14174221,-0.1908623,-0.19075975,0.013340414,0.101576366,-0.15213807,0.0835837,0.07570655,-0.1501693,0.032211196,0.14785022,-0.07326437,0.0586243,0.15723316,0.018040976,0.03998972,-0.16064766,-0.046252836,0.038635183,0.060400356,0.044528265,0.18641266,-0.02667731,0.22359397,0.07104712,-0.028755596,-0.22698921,-0.11006605,0.14401248,-0.31468442,0.116447575,-0.06723527,-0.000113849215
p45,0.007324599,-0.073539145,0.016397804,0.032737326,0.21655208,-0.032136515,0.061843157,-0.064841,-0.0398828,0.2513344,-0.0027098462,-0.1193465,0.045077804,-0.09187835,0.09053831,0.089455254,-0.1504475,0.013046061,-0.2480944,0.28354585,0.015031899,-0.09164121,-0.12545906,-0.25583863,0.0050188154,0.11677247,-0.018169718,0.061997224,-0.0036231144,-0.105091155,-0.15757564,0.013585393,0.09802794,0.086357534,-0.0043990673,0.11131766,0.105070904,0.024040077,-0.012523224,0.121196724,0.099212535,0.15864782,0.003762409,0.01377268,0.15862127,-0.19230606,-0.02687245,0.02440448,0.13567534,0.08539812,0.13739482,0.1256453,0.07993796,-0.0133627765,-0.120192535,-0.07062878,0.09079534,-0.05268113,-0.048580162,0.057053875,-0.28193244,0.09781362,0.027483283,-0.016141148,0.25279668,-0.12893674,-0.01952042,0.006421119,0.042216677,-0.053105015,0.008631641,-0.08927611,-0.3149772,-0.11855087,0.14453708,-0.0903678,-0.02127817,-0.11187935,-0.1791743,-0.074291766,-0.14165743,0.03821103,0.15925764,0.20056827,0.03667661,0.24193119,0.109818995,-0.22656085,-0.012580218,0.077232555,0.0135273915,-0.06299461,0.012398144,0.027035533,0.066428706,0.1230026,-0.1269286,-0.13064426,0.013896251,0.071012184,-0.13882025,0.08928841,0.07402676,-0.13590729,0.0014535377,0.097474515,-0.038855217,0.063699804,0.14699484,0.029629113,0.022159358,-0.16993321,-0.046180043,0.015652329,0.068957694,0.06560507,0.16806054,0.001471522,0.16986243,0.039039813,-0.02827062,-0.2002565,-0.1022038,0.12605998,-0.2416921,0.09128241,-0.0950735,-0.0016385919
p46,0.0071836626,-0.07388213,0.06904576,0.10024081,0.23222591,-0.060232315,0.11495853,-0.015358202,-0.050726954,0.26488447,0.006556452,-0.14999539,-0.0030082483,-0.04459305,0.112409346,0.14635658,-0.19041228,0.0033821892,-0.18112454,0.34181267,0.023377711,-0.098101616,-0.14243476,-0.28174937,0.0023467427,0.12890951,-0.03702354,0.08364666,0.06267203,-0.09183644,-0.20213611,0.04678151,0.057528317,0.14349633,0.00024687342,0.11023902,0.09514464,-0.020599239,-0.009492951,0.082454324,0.08302613,0.20549877,-0.019215966,-0.011725657,0.24467786,-0.23218061,-0.09332527,0.08648129,0.23337184,0.11515365,0.16346893,0.16958733,0.12775122,-0.030447684,-0.15190019,-0.0005005281,0.08724121,-0.015142752,-0.116370454,-0.007504843,-0.2930907,0.1987296,0.029878378,-0.042968974,0.32250276,-0.19403161,-0.011166489,0.005612038,0.050461728,-0.08275466,0.01300673,-0.10021758,-0.39672288,-0.17238076,0.15916972,-0.07070122,-0.052643735,-0.122079074,-0.23265958,0.005627683,-0.17009889,0.07256271,0.23348978,0.29167813,0.021077713,0.31623036,0.21106148,-0.25470072,-0.021110496,0.1287817,0.07132381,-0.109897904,-0.01694113,0.03419163,0.012458588,0.15337142,-0.21958265,-0.21531177,0.03578735,0.07265205,-0.17472652,0.09803561,0.0900705,-0.11279077,0.037979398,0.13375518,-0.099516995,0.07754928,0.1720636,0.013734575,0.025211867,-0.16533439,-0.031100003,0.059875973,0.03190282,0.037548985,0.16624868,-0.031541694,0.22932792,0.044604957,-0.061426975,-0.27040586,-0.09041705,0.15408333,-0.30862984,0.1209038,-0.05474886,0.0206391
p47,-0.018977923,-0.07241061,-0.011032037,-0.018062707,0.19464889,-0.07833061,0.055869266,-0.10909791,0.0013961078,0.29913634,0.05262227,-0.11126726,0.09208746,-0.19895674,0.06880725,0.13561806,-0.13377295,0.01004607,-0.36211684,0.2446451,0.098281115,-0.085101575,-0.17042321,-0.26844954,-0.11556021,0.09179504,-0.05576809,0.09554223,0.027631944,-0.06231117,-0.12521125,0.0058171256,0.11542477,-0.016663305,0.0009933327,0.17647703,0.14740181,0.061352536,0.027923252,0.16362977,0.092914395,0.13501398,0.02858687,-0.008164554,0.15243463,-0.118648715,0.018273901,-0.033299915,0.027115822,0.033788677,0.116383746,0.06838891,0.018606259,0.04990336,-0.15597162,-0.13526125,0.12947,-0.15562417,0.0017780953,0.18001613,-0.30739307,-0.016990611,0.05176328,-0.027013157,0.15725113,-0.074616365,0.07001914,0.034243967,-0.02192992,-0.039008904,-0.047486298,-0.13015133,-0.22858776,-0.0895011,0.18624179,-0.08178312,-0.0026867706,-0.16065939,-0.14522494,-0.09207168,-0.097842224,-0.058753815,0.16281077,0.16445956,0.094227836,0.22719319,0.043998774,-0.21851996,0.05254261,0.04279888,-0.08299407,-0.036779273,0.056445573,0.037323803,0.14684407,0.10047979,-0.037191395,-0.10394904,-0.008003974,0.027249325,-0.18273409,0.09872966,0.038204163,-0.08564534,0.053223602,0.015031307,-0.0012407583,0.10453144,0.18272111,0.01486973,0.002630832,-0.20705219,-0.053873174,0.042378064,0.05982964,0.08527067,0.16331501,0.070864476,0.09011266,0.03655345,-0.04718589,-0.15214214,-0.18863392,0.10610067,-0.14347178,0.016328486,-0.10855282,0.013275174
p48,0.001256365,-0.06902405,-0.0063375086,0.0035074214,0.18125589,-0.08577958,0.06845362,-0.08939047,-0.0026523927,0.2843587,0.061385088,-0.10083427,0.076692075,-0.16536361,0.073267676,0.13475132,-0.13523811,0.0068395343,-0.32876596,0.2361868,0.08253294,-0.08204432,-0.14353624,-0.25043952,-0.10383571,0.10446837,-0.046570934,0.08177135,0.001705224,-0.06866632,-0.13925323,0.00418587,0.11613475,0.007359861,-0.018069312,0.16171499,0.12657413,0.04583192,0.015214953,0.14378703,0.09052654,0.1321393,0.016165782,-0.021367606,0.1406834,-0.12361622,0.0020466994,-0.014267826,0.055786483,0.026229588,0.12842827,0.07433343,0.009110431,0.049707364,-0.1369273,-0.12262202,0.11823852,-0.13569798,-0.010305339,0.15468569,-0.28408846,-0.002594732,0.053565558,-0.032836493,0.15866424,-0.07394142,0.04819436,0.03581477,-0.010319345,-0.043081697,-0.021013709,-0.10878958,-0.21232644,-0.10121991,0.16592346,-0.06930597,0.0015131137,-0.13758524,-0.14743973,-0.07225893,-0.09422716,-0.03872513,0.14030465,0.16750906,0.06510005,0.20816277,0.06614083,-0.20681714,0.037805833,0.04219571,-0.07523679,-0.03460838,0.051043186,0.029209109,0.1270157,0.091497436,-0.061673194,-0.11840619,-0.0076972987,0.045518756,-0.17125802,0.10342931,0.044621818,-0.0862529,0.04182056,0.029524975,0.008599031,0.107175715,0.16735941,0.015181719,0.00043731264,-0.1789411,-0.07109869,0.039622936,0.048093848,0.07928279,0.1670933,0.07138784,0.08929429,0.034339596,-0.05693948,-0.14542633,-0.15388532,0.12105858,-0.14523625,0.029683786,-0.09662433,0.013315787
p49,-0.0040503396,-0.072768696,0.026244896,0.05995373,0.2009059,-0.04050392,0.09455487,-0.057582986,-0.03540119,0.27557018,0.044962697,-0.096994065,0.021143857,-0.12112495,0.082433715,0.14315556,-0.17259178,-0.018007793,-0.23741058,0.29770458,0.017297633,-0.08873561,-0.13228187,-0.26129407,-0.021561598,0.10093344,-0.017454525,0.076742746,0.033054017,-0.0672045,-0.14280362,0.035164256,0.10326459,0.0441085,-0.021751482,0.12241114,0.117771834,0.028275063,0.0010833372,0.13227563,0.078859314,0.15534274,0.009880065,-0.007483751,0.16479196,-0.16378744,-0.06385603,0.044509925,0.11701535,0.0675122,0.09850324,0.1285027,0.053273804,0.027239464,-0.14572887,-0.069252335,0.08596081,-0.058676988,-0.022405427,0.07371316,-0.26359245,0.080812536,0.043084107,-0.032638285,0.19481029,-0.12037304,-0.015245601,0.014464538,0.027435778,-0.04389598,-0.023231674,-0.11108407,-0.28660837,-0.14886695,0.17218111,-0.07181187,-0.015798775,-0.1270462,-0.17687635,-0.058656406,-0.11089091,0.032147568,0.17364398,0.20440717,0.03575253,0.26566315,0.13000949,-0.20638487,0.021703765,0.0740158,0.00632876,-0.06232983,0.023949042,0.04569271,0.05256271,0.12796913,-0.1215885,-0.12910576,0.020850554,0.056156006,-0.16356437,0.08070831,0.08059434,-0.118773125,0.010234906,0.053800747,-0.040255714,0.06089469,0.15678145,0.016733361,-0.00359973,-0.18586133,-0.04134704,0.030954653,0.055840466,0.050035942,0.16621,0.015206424,0.14724766,0.028135162,-0.055337112,-0.19909018,-0.118193686,0.12021673,-0.19616924,0.058668334,-0.08496402,-0.002474153
p50,-0.005777221,0.0036247903,-0.004185685,-0.0027230345,0.0024181902,0.0054556224,0.007390041,0.00053783227,-0.0056873085,0.00399262,-0.0036158944,0.0067804987,-0.004706295,3.5929494e-05,0.004992145,0.0076116547,-0.0047919443,-0.0021389714,0.0006924998,0.0025398526,0.00410458,-0.004578582,0.006204555,0.004153029,-0.0066832174,0.005533565,0.0019369945,-0.0055526216,0.004475441,6.2823296e-05,0.00453132,-0.0060343724,-0.0008325726,0.0077274926,-0.0028585382,-0.0012972225,0.0027538165,-0.0019345274,0.0048839645,-0.004201521,0.001944066,-0.0005405601,-0.0034989156,-0.004625544,-0.0036445456,-0.0026790183,-0.0022259327,0.0042420328,0.0011323215,-0.0040340517,-0.0010416694,-0.004041088,-0.00045525283,0.00047410186,0.0028214967,0.004707964,0.0033325944,-0.003039739,0.002799471,-0.0053169597,0.006322244,-0.0075153774,-0.0015162937,-0.003895171,-0.0012768274,-0.0074361684,0.0046561947,0.0030183764,0.0014236486,-0.004422675,0.003617947,0.0039980533,0.0015342915,0.0047431504,-0.003782441,-0.004730587,0.002423198,-0.0013403399,0.0028519947,0.006934451,-0.0035233703,0.005889903,0.0056878896,0.0038175285,-0.006430787,0.003128047,0.00042757578,0.00749793,-0.0010881787,-0.0023318334,-0.0024458403,-0.006187777,0.0017882856,-0.004749152,-0.004956697,0.0077153565,-0.0020701503,0.00037776586,-0.0077695716,-0.004503282,0.001025157,0.0029800944,0.0007413458,0.007485832,-0.0063665556,-0.0004472211,-0.006985274,-0.0053396923,-0.0067718914,0.0043653054,0.0017476827,-0.0060213124,0.005796246,0.0060766656,0.0018801438,-0.001539425,-0.0032933,0.0039720247,0.00093615986,-0.006793013,0.0057264837,-0.0018241052,0.00169555,-0.00042041764,-0.0011069179,-0.0028345073,0.007492031,0.0010868218
p51,0.0067909993,-0.057742164,0.02774069,0.040437203,0.18856058,-0.06076228,0.10443503,-0.073356874,-0.041816592,0.29573557,0.08326409,-0.11655781,0.03277521,-0.14567725,0.123352036,0.1511725,-0.15516019,-0.015755707,-0.2407639,0.28576064,0.0063568363,-0.077837475,-0.15509245,-0.2633328,-0.024218995,0.08428967,-0.0069060847,0.08579747,0.05296303,-0.063989215,-0.16433853,0.0041350937,0.08877866,0.015454554,0.0005100508,0.11556056,0.13977627,0.014061255,0.03919939,0.097913146,0.092162296,0.17792587,-0.015922068,-0.016875567,0.21417548,-0.20303315,-0.06651476,0.03499148,0.13727018,0.09724691,0.13385099,0.11550886,0.059948836,0.032321446,-0.14853184,-0.05661693,0.08858115,-0.106194206,-0.035429385,0.10688223,-0.2503133,0.108992964,0.07308074,-0.042411037,0.17834134,-0.11888784,0.018759118,0.04831467,0.048480492,-0.057264492,-0.037304908,-0.13852143,-0.29761842,-0.14644252,0.17343934,-0.04256723,-0.006742964,-0.12638132,-0.17402007,-0.0019903125,-0.1463683,0.010380797,0.23364091,0.2528658,0.06526819,0.2592213,0.16639616,-0.24242459,0.03113086,0.06949141,-0.044100344,-0.078785844,0.023895102,0.043100018,0.037022687,0.11661937,-0.13272002,-0.123700805,0.02081479,0.047041096,-0.17270733,0.074905775,0.07652477,-0.08895727,0.028786058,0.071300745,-0.034293614,0.097264595,0.13772522,-0.025090076,0.02002802,-0.18600276,-0.027183255,0.05293514,0.027188784,0.03326572,0.17805606,0.00043141993,0.1472963,0.075181045,-0.07090372,-0.19638056,-0.15244168,0.119663805,-0.22658515,0.05512674,-0.064141996,-0.002119283
p52,0.0047227102,-0.0911916,-0.0040250323,-0.029529415,0.18521641,-0.092090406,0.08713228,-0.108817205,-0.034550626,0.28779793,-0.017965928,-0.14054067,0.11498771,-0.17151473,0.08615704,0.14591236,-0.14859572,-0.0042529535,-0.3971152,0.21033172,0.120040804,-0.10754963,-0.17685471,-0.25126755,-0.13342392,0.13065481,-0.07195517,0.11757629,-0.04341636,-0.12695023,-0.11404978,-0.036985114,0.18265428,0.05713645,-0.07333365,0.18298903,0.108892806,0.046642393,-0.007217394,0.16647935,0.08575404,0.09794757,0.010714207,0.018795842,0.11804642,-0.11787263,0.035181258,-0.064184316,0.0045257052,0.0034637076,0.14827122,0.09321236,0.0044412888,0.036247797,-0.14748035,-0.14154768,0.10302743,-0.13130456,-0.044489756,0.13356373,-0.3406561,-0.023500826,0.080555014,-0.06078765,0.2181685,-0.049085002,0.03445957,0.018178957,-0.0703863,-0.032776486,0.016570106,-0.13085487,-0.19808635,-0.10531028,0.15389203,-0.08259876,-0.009506103,-0.14045519,-0.13189118,-0.11858481,-0.093856744,-0.059489552,0.0916422,0.11226092,0.0800946,0.18289411,-0.0020886722,-0.1935063,0.021948524,0.044234872,-0.095655225,-0.018059893,0.058971103,-0.00019370107,0.1648999,0.106981404,-0.028158238,-0.083198175,-0.0057172454,0.06964987,-0.16512406,0.098723784,-0.011857681,-0.08937425,-0.0029014528,0.02416071,0.012324575,0.12561451,0.18120563,0.032369662,0.015990587,-0.20415293,-0.11043891,0.03908043,0.061055284,0.08340557,0.18268614,0.14061573,0.09514323,0.019327924,-0.05170561,-0.15717453,-0.13863625,0.11556149,-0.14535953,0.089617506,-0.11506054,0.020680122
p53,0.0036204834,-0.051953018,-0.018753663,-0.019034643,0.16097921,-0.033708382,0.063553095,-0.074042365,-0.015382373,0.23694307,0.011902457,-0.076223895,0.06142579,-0.11010315,0.061783712,0.07888103,-0.14575544,-0.023477044,-0.24489209,0.22517928,-0.009387618,-0.08926691,-0.10265313,-0.19938779,-0.0051836465,0.08632858,0.005693665,0.05327359,-0.022142656,-0.07394988,-0.093963765,-0.0046880147,0.12464659,0.014491188,-0.032774758,0.12288399,0.09661328,0.058367766,-0.013317727,0.12656865,0.067035265,0.09583899,0.010476246,0.015114092,0.10221598,-0.13184519,-0.009820192,0.0048736776,0.059922624,0.019220302,0.06168106,0.08943984,0.019708773,0.008905993,-0.12588137,-0.078607336,0.06465918,-0.055429257,0.013591151,0.10711841,-0.22527185,0.01891232,0.032568432,-0.023813507,0.13910037,-0.06951302,-0.02375663,0.021441132,0.0014549171,-0.031763956,-0.015981708,-0.11180311,-0.19302315,-0.08853583,0.12517004,-0.06987081,0.0038575674,-0.099679284,-0.1334717,-0.10986823,-0.08090189,0.013326002,0.09162528,0.124562524,0.02321114,0.17886327,0.037175532,-0.169736,0.01129694,0.023661146,-0.036925852,-0.023342384,0.045993384,0.0350199,0.076865844,0.09005469,-0.054912645,-0.06579768,0.009689988,0.05922735,-0.11597519,0.05365745,0.066178,-0.12436976,-0.024383383,0.046294823,0.0037417193,0.06688478,0.112555444,0.03173922,0.012215844,-0.16433412,-0.06525326,-0.012034121,0.062610134,0.055663507,0.15218917,0.019932749,0.08412484,0.028591083,-0.03843157,-0.13306284,-0.095376395,0.08899085,-0.15494287,0.062443797,-0.093476266,0.0034661237
p54,-0.020911854,-0.09017531,0.018896371,-0.009701638,0.16849165,-0.07475257,0.08712986,-0.09844382,-0.009154991,0.27237225,0.049336124,-0.15544966,0.09215035,-0.20129248,0.07305762,0.15776412,-0.10176247,0.03349812,-0.33479333,0.18357977,0.11676577,-0.07168257,-0.1690289,-0.24722075,-0.16721353,0.10722472,-0.066376135,0.11176533,0.005898513,-0.08893817,-0.12467776,0.00077925797,0.15363103,0.01736865,-0.04532065,0.16794242,0.14953487,0.024152795,0.054560293,0.13414183,0.09905731,0.13412932,-0.0011151951,-0.028114483,0.14795528,-0.080167115,0.020112459,-0.06022066,-0.0007039637,0.043769773,0.1431568,0.08317238,0.010603524,0.08882462,-0.14429843,-0.11567289,0.13063446,-0.18219014,-0.0449332,0.15554327,-0.30517808,-0.018082842,0.09262448,-0.030127808,0.18477441,-0.05881448,0.076832265,0.016184468,-0.048111077,-0.055090234,-0.004607082,-0.09778816,-0.18526025,-0.10757108,0.1536065,-0.03949923,0.009674354,-0.14083813,-0.121523194,-0.059138313,-0.09752831,-0.031151837,0.15787248,0.16201067,0.10004952,0.20252642,0.050560363,-0.18019699,0.038453545,0.06463035,-0.11626642,-0.054202303,0.082307875,-0.008730561,0.13879134,0.12186967,-0.02127069,-0.120550744,-0.024108263,0.049066395,-0.18262309,0.11246743,-0.01624047,-0.06817004,0.030421855,0.034379326,0.01719621,0.14500771,0.18936993,-0.0016903856,0.019871252,-0.17505284,-0.07359263,0.070634164,0.03724495,0.07037722,0.20244822,0.11520283,0.09750189,0.0370123,-0.07733321,-0.13637841,-0.16908109,0.11713783,-0.13058081,0.02615205,-0.09742718,0.029466089
p55,0.01833708,-0.019560523,0.03931857,0.06725214,0.26182416,0.0032349548,0.1171235,0.0026541832,-0.066612,0.24822393,-0.08018986,-0.10219897,-0.03771496,0.03814577,0.112511404,0.07505723,-0.24870963,-0.08832632,-0.13552296,0.39369464,-0.1355284,-0.12911926,-0.0949523,-0.26825264,0.18428688,0.12619406,0.045685094,0.04338741,0.017701812,-0.10991682,-0.15342763,0.004960422,0.07944889,0.13941696,-0.027109489,0.026641553,0.031173846,0.010218464,-0.109768376,0.091788046,0.059451226,0.17205584,-0.0434247,0.06399909,0.19003816,-0.30861115,-0.1344447,0.13119058,0.2932394,0.11324274,0.06208118,0.20913732,0.12191688,-0.13967308,-0.12903273,0.047952905,0.018210193,0.124811865,-0.057471327,-0.10788068,-0.23153484,0.26147193,0.006566707,-0.022851847,0.29801202,-0.19306417,-0.15533039,0.004006712,0.11257107,-0.044453844,0.032573152,-0.14092231,-0.41530657,-0.18383974,0.12441886,-0.096196875,-0.046742734,-0.07192812,-0.24854921,-0.11292623,-0.15249112,0.15216805,0.16492769,0.24123247,-0.08718336,0.30394956,0.16042054,-0.22954126,-0.088879436,0.059405398,0.14027324,-0.06678258,-0.03350439,0.05604115,-0.06524058,0.12599662,-0.25539702,-0.13255692,0.07063994,0.082679816,-0.097645834,0.052065082,0.16838793,-0.1746558,-0.098518975,0.14615087,-0.094802044,-0.015076232,0.08837466,0.06426118,0.052837808,-0.18262525,-0.040501736,-0.019115493,0.07462726,0.013960595,0.15966412,-0.116178714,0.21178567,0.0572066,-0.040138252,-0.31623495,0.011607994,0.15519293,-0.33852005,0.21763435,-0.08806061,-0.028727606
p56,-0.016357163,-0.08792378,0.019445019,0.047934014,0.20576763,-0.1050062,0.077082396,-0.08953509,-0.013427664,0.31473124,0.05470343,-0.13907075,0.077815376,-0.18192811,0.088801436,0.18769404,-0.13659076,0.016400162,-0.33204708,0.26683062,0.14383687,-0.07858199,-0.18579566,-0.2876927,-0.14015293,0.114636175,-0.085150324,0.12172368,0.04690824,-0.0915409,-0.17608945,0.026611961,0.10232499,0.054078303,-0.024513828,0.17831866,0.12926792,0.012014494,0.036131386,0.14302462,0.09185694,0.18865292,0.013481551,-0.028980777,0.1986805,-0.12839884,-0.026900966,-0.0005935943,0.08000413,0.05192915,0.17990378,0.08910464,0.045634743,0.049638256,-0.15687436,-0.11639655,0.14426695,-0.17396589,-0.07492634,0.13631088,-0.3309512,0.023187019,0.06068561,-0.055356573,0.23317008,-0.11914978,0.09035686,0.034290053,-0.019461382,-0.08062326,-0.018837433,-0.11248363,-0.27360436,-0.1446241,0.1901036,-0.054435518,-0.019357346,-0.15975568,-0.17825963,-0.028914781,-0.121738285,-0.011732418,0.19092457,0.24361217,0.08915431,0.26907402,0.11473377,-0.24585707,0.031826053,0.10967101,-0.06445362,-0.08811077,0.045407705,0.022721933,0.14843982,0.12362733,-0.098180935,-0.19036739,-0.021234108,0.050744947,-0.20954415,0.13339633,0.016316308,-0.056709226,0.09440634,0.05464226,-0.047525793,0.12477719,0.21439292,-0.0037659414,0.006180459,-0.18507507,-0.06039012,0.09208469,0.021526258,0.061109304,0.1765558,0.07379249,0.15120183,0.040606618,-0.077550165,-0.19723088,-0.18855496,0.13519077,-0.20550033,0.03743425,-0.09276514,0.027110452
p57,-0.019788558,-0.13743019,0.029113093,0.014629329,0.20053849,-0.1773932,0.08552174,-0.13928524,0.0018309755,0.35419866,0.11213161,-0.18695974,0.13901299,-0.2635908,0.07666001,0.22397837,-0.12188425,0.07760269,-0.49023235,0.23190635,0.25653479,-0.08220524,-0.2604714,-0.3234403,-0.28550813,0.12760496,-0.16879757,0.16887486,0.044202678,-0.09385715,-0.19816166,0.0010792845,0.1696289,0.061495166,-0.03602534,0.28677568,0.17153376,0.010959588,0.077856995,0.17865175,0.1175182,0.18523915,0.0536249,-0.06566977,0.21267916,-0.09042929,0.056521073,-0.09287976,-0.0034036792,0.03685311,0.25032872,0.063101776,0.04421692,0.11140233,-0.1510138,-0.19400398,0.20557606,-0.28760043,-0.09231816,0.23430522,-0.43613258,-0.050204325,0.09324459,-0.09059004,0.27740824,-0.082931764,0.1673144,0.047063082,-0.1041681,-0.09852208,-0.021731827,-0.11471016,-0.2575694,-0.100811176,0.22494353,-0.054128736,-0.021916661,-0.18993522,-0.15732172,-0.0262117,-0.14416274,-0.12966676,0.21982783,0.25315535,0.17875056,0.24400105,0.10260498,-0.25800052,0.07657775,0.129733,-0.16126877,-0.07016253,0.096965425,0.018548025,0.24111453,0.14373034,-0.05217137,-0.19672278,-0.050341044,0.0705976,-0.27864355,0.16072482,-0.03524972,-0.0404995,0.13649218,0.025312698,0.004866966,0.21148157,0.2631065,-0.03343258,-0.0071763997,-0.20111999,-0.10180472,0.1356973,0.013863379,0.10790302,0.23341714,0.1925013,0.12606896,0.03772887,-0.10036812,-0.15351184,-0.28353643,0.15222187,-0.149448,-0.0037175121,-0.10267634,0.05348702
p58,-0.0023105044,-0.08401289,-0.0052643227,0.0012553168,0.2055056,-0.07630566,0.055585895,-0.12182496,-0.026504673,0.3029177,0.03450754,-0.14628473,0.1002075,-0.1824008,0.092846125,0.13509332,-0.12507953,0.03135472,-0.3538942,0.24918506,0.1118581,-0.08479741,-0.16030113,-0.262296,-0.10966224,0.113008626,-0.04985532,0.10215086,-0.0082271565,-0.101851076,-0.12718719,-0.00081886223,0.13667363,0.0396096,-0.025787195,0.1798594,0.14389798,0.03164829,0.02446018,0.17087597,0.10812568,0.14545733,0.015887644,-0.012654245,0.16316631,-0.13514555,0.023624212,-0.05645035,0.036080945,0.046120726,0.15889715,0.08753299,0.02457382,0.058821045,-0.14434582,-0.118586116,0.118216395,-0.15555349,-0.03052888,0.16639549,-0.32945925,-0.001930621,0.06258411,-0.025232293,0.2114906,-0.07383606,0.06074767,0.013378465,-0.0351371,-0.04951878,-0.015721962,-0.10496376,-0.24952947,-0.100357056,0.18141417,-0.07611697,-0.009770742,-0.1607723,-0.16303444,-0.08531445,-0.118310384,-0.03765168,0.16461846,0.18690526,0.08810224,0.22859746,0.06314073,-0.2290074,0.017277058,0.068892285,-0.07734641,-0.047332462,0.07796073,0.03181818,0.14319287,0.11168261,-0.05387441,-0.12662144,-0.01385676,0.05978814,-0.18417484,0.103105016,0.027826538,-0.09984563,0.035305247,0.054073855,0.0048166253,0.12656865,0.19818613,0.022513082,0.02419092,-0.19248807,-0.0788101,0.044564534,0.067792654,0.086290784,0.18528596,0.081679165,0.109389596,0.05266533,-0.04755442,-0.14732878,-0.17534848,0.12976384,-0.1922968,0.036391187,-0.11518389,0.022627445
p59,0.005121927,-0.06457996,-0.01903145,-0.106779486,0.14986828,-0.108378544,0.06509542,-0.14435284,-0.031195313,0.35605973,0.014286434,-0.13989557,0.14076889,-0.20769049,0.06675142,0.11141732,-0.13615581,0.030688781,-0.44434032,0.168383,0.1199471,-0.12516682,-0.1793604,-0.2396836,-0.14128004,0.11000083,-0.06035143,0.10050283,-0.07863549,-0.1268911,-0.07432958,-0.0716409,0.21244422,-0.0027542752,-0.06518093,0.21114135,0.115913875,0.0837477,-0.019895593,0.19426572,0.11462996,0.08968496,0.02464477,0.009063682,0.10840725,-0.09307059,0.0816255,-0.10875964,-0.035016775,0.0007716524,0.12205487,0.07724687,-0.030496014,0.06392103,-0.12404502,-0.18983325,0.094047464,-0.19644895,0.024632242,0.22862658,-0.36653027,-0.08229147,0.100109845,-0.04378735,0.16006128,0.00430122,0.09151113,0.015813237,-0.073384926,-0.0061879773,0.0020463108,-0.12655702,-0.130749,-0.042260222,0.15662879,-0.060560916,0.039605588,-0.16349715,-0.09940959,-0.14409737,-0.09807573,-0.0743373,0.08577024,0.07849847,0.08339923,0.15633497,-0.054652993,-0.16821687,0.028942384,-0.0036018738,-0.14941208,0.011410952,0.09632271,0.009690742,0.19056882,0.09708168,0.04692172,-0.02974541,-0.05054436,0.07690774,-0.16370764,0.0887761,-0.006087193,-0.11630517,0.0029726084,0.010099368,0.06538857,0.16024469,0.15999079,0.03909574,0.027051104,-0.20049469,-0.12377215,0.018707322,0.09353386,0.107034296,0.199197,0.14818789,0.075581774,0.05568664,-0.051643576,-0.087511785,-0.17180789,0.11931488,-0.10296278,0.048271745,-0.12377317,0.028713657
p60,0.0025365213,-0.06987264,-0.00064827513,0.038825776,0.21002865,-0.021600807,0.04702353,-0.07912413,-0.010879714,0.27072984,0.030210301,-0.07502165,0.060137443,-0.16143472,0.063258775,0.12431546,-0.13583808,0.0053866175,-0.29084575,0.26767808,0.035504993,-0.103836715,-0.13649,-0.23042527,-0.07579948,0.070720606,-0.009674598,0.07621899,-0.0027018096,-0.061314784,-0.08192721,0.026258921,0.12479482,0.0037914508,-0.039976742,0.154377,0.14038943,0.036495022,-0.028871054,0.1809942,0.10203051,0.10942026,0.017345602,0.0045522912,0.1302965,-0.11400566,-0.032004602,0.0063067125,0.04192953,-0.0010424653,0.08780874,0.0721002,0.01083139,0.054878604,-0.16458212,-0.09494169,0.0919416,-0.107066534,0.005873508,0.15737908,-0.26458493,0.0035853593,0.02066213,-0.0084978985,0.15088114,-0.08859863,0.015890295,-0.017101418,-0.018843258,-0.04759702,-0.0477767,-0.09885392,-0.21024111,-0.11671331,0.17817973,-0.089560695,-0.009613517,-0.13754015,-0.14752729,-0.09413787,-0.06650901,0.02038723,0.09589619,0.13789035,0.054707564,0.23122033,0.051311623,-0.18990324,0.025113774,0.024619555,-0.04457883,-0.035484914,0.06106105,0.06691961,0.08810335,0.10355287,-0.0434365,-0.09519072,0.002612337,0.060347047,-0.14161631,0.07245938,0.075863555,-0.13255034,0.02059973,0.04033401,0.023854172,0.07373444,0.1759878,0.008222813,-0.016834963,-0.1976879,-0.07165919,0.02993999,0.091887854,0.08062868,0.1565209,0.042193588,0.09306307,0.0037893215,-0.043218113,-0.14699906,-0.13229601,0.1171751,-0.14392152,0.031763736,-0.10360289,-0.00021921424
p61,0.0057708113,-0.018857263,-0.014460548,0.004024967,0.22012208,0.0018265259,0.088590354,-0.052044254,-0.052721318,0.23648898,-0.037308283,-0.059100766,0.005450108,-0.037573937,0.11048153,0.07508438,-0.23800917,-0.10803738,-0.20490283,0.3376151,-0.110085726,-0.11387142,-0.07397282,-0.24546897,0.16665131,0.10779446,0.07336916,0.040072076,-0.022498248,-0.089593485,-0.1287068,-0.013260294,0.10172418,0.067143746,-0.016880177,0.08077909,0.0637292,0.07790358,-0.08839037,0.119731285,0.038039353,0.15167925,-0.02445986,0.07364607,0.11628606,-0.25507247,-0.114827886,0.094943285,0.17901717,0.06467127,0.013988607,0.1715643,0.043124095,-0.07245491,-0.14589638,-0.0017812493,0.011763386,0.08443007,0.028558116,-0.032700345,-0.20046335,0.14116591,0.032261405,-0.02730893,0.19854781,-0.112414174,-0.14603488,0.022440821,0.07457035,-0.02483637,-0.00045911776,-0.17198597,-0.31740224,-0.1785034,0.10950281,-0.11678582,-0.01233589,-0.09589296,-0.21164283,-0.15907405,-0.1142315,0.11726515,0.13241616,0.17011496,-0.06981344,0.26075226,0.083036415,-0.21245459,-0.0558959,0.022953605,0.0689202,-0.039060455,-0.0061879857,0.030317279,0.0051449398,0.10748276,-0.1770643,-0.076468684,0.07231607,0.07632181,-0.10940374,0.05584226,0.12611353,-0.16695343,-0.11663934,0.09211298,-0.056018468,-0.0032054526,0.06535957,0.07237172,0.0074890107,-0.20019236,-0.044277843,-0.06634435,0.083878264,0.011326005,0.15892623,-0.070652425,0.13275969,0.026476966,-0.019736256,-0.25080448,-0.01764449,0.1243121,-0.27250034,0.16256739,-0.09879846,-0.022037126
p62,0.018913358,-0.0301941,-0.021761775,-0.0116970185,0.20714658,-0.0043240217,0.08470023,-0.07310999,-0.03601534,0.2676058,-0.025587134,-0.06357848,0.027591879,-0.099921525,0.082766116,0.081513375,-0.19615526,-0.063539915,-0.26294675,0.2952831,-0.061696947,-0.121499665,-0.09062925,-0.24336493,0.08354218,0.1051249,0.049064886,0.0529951,-0.03331474,-0.092617065,-0.087734126,-0.0062712184,0.1334785,0.022388166,-0.023590425,0.099160895,0.0844099,0.071128115,-0.057226967,0.14357755,0.060246706,0.11004511,-0.011337313,0.046257686,0.11017035,-0.19419742,-0.051588733,0.047263116,0.09760969,0.03750756,0.028981393,0.13018917,0.006631945,-0.028857669,-0.1421075,-0.053881995,0.044081006,0.0185178,0.038705364,0.06304548,-0.23002212,0.07114769,0.036386717,-0.022280501,0.14146768,-0.07189277,-0.07557289,0.022395601,0.035335794,-0.015587907,-0.020522455,-0.16419685,-0.23032007,-0.13567273,0.12764914,-0.09592824,0.012223648,-0.11865977,-0.15862557,-0.16081868,-0.08675108,0.059442595,0.090263,0.12862928,-0.024942117,0.22617954,0.025189813,-0.17307876,-0.014650373,0.00383018,0.0049439487,-0.018335674,0.022515662,0.03145035,0.047571726,0.106558345,-0.09264476,-0.04859964,0.059756637,0.05518194,-0.11629764,0.0552977,0.10349954,-0.1576376,-0.09234421,0.055915277,-0.0012830439,0.031597212,0.093963064,0.056458455,-0.0012743339,-0.20722833,-0.05997633,-0.021342402,0.10619893,0.044679698,0.15725203,-0.013120556,0.11673303,0.0235084,-0.030100577,-0.19915292,-0.056301333,0.11273818,-0.19639683,0.11850381,-0.1093972,-0.020290587
p63,0.0019177533,-0.0888231,0.01452488,-0.0067122364,0.1648965,-0.12416984,0.055486586,-0.09019194,-0.004822091,0.30818647,0.06465257,-0.11850739,0.10566763,-0.19315654,0.053751472,0.1469206,-0.14655201,0.017337576,-0.36318374,0.2458472,0.13535623,-0.09028127,-0.18047358,-0.2702198,-0.11814507,0.096355096,-0.07086677,0.0953242,0.019860229,-0.07365055,-0.14897884,-0.0060960012,0.13615039,0.0011576862,-0.0018606315,0.21494105,0.1336073,0.045263402,0.009573132,0.1687888,0.09713341,0.1692979,0.05153969,-0.022202808,0.17129104,-0.13017884,0.019568926,-0.03536833,0.050736994,0.03057698,0.13476115,0.07913967,0.028264528,0.06303124,-0.12605608,-0.13243651,0.13591568,-0.17203051,-0.00075581577,0.17935143,-0.33887658,-0.018914865,0.07292788,-0.061408475,0.19685133,-0.077349335,0.09606799,0.020605339,-0.019581433,-0.059551526,-0.03415287,-0.10726548,-0.22282246,-0.09178421,0.1840957,-0.083677895,-0.02083298,-0.16162212,-0.14819025,-0.08135132,-0.13800731,-0.052257944,0.17747107,0.19354115,0.09745408,0.22224692,0.059727266,-0.21091886,0.048182648,0.06456459,-0.09576861,-0.028401371,0.05522448,0.05311826,0.14368087,0.12152214,-0.0730374,-0.12383531,-0.017043844,0.050969582,-0.20323922,0.12120311,0.026848698,-0.09136689,0.06531137,0.011326121,0.01546711,0.10548256,0.16207759,0.004260923,-0.023911964,-0.1720841,-0.07428236,0.07245662,0.038780075,0.07763759,0.17628483,0.114373535,0.088571176,0.04284904,-0.0654213,-0.16176544,-0.20047121,0.11416565,-0.14353,0.016811868,-0.096795954,0.019632407
p64,-0.015295791,-0.062940076,-0.0069692405,0.0007383393,0.15711352,-0.12802283,0.081297636,-0.123078555,0.00076784653,0.32423714,0.1232106,-0.0923809,0.069184266,-0.20675921,0.10974576,0.1760999,-0.118205495,0.04192911,-0.33125967,0.22446473,0.11853023,-0.06114845,-0.16922376,-0.29753372,-0.1251161,0.100306034,-0.046909906,0.07171107,0.063998654,-0.08671829,-0.18453974,-0.010707994,0.0879437,-0.010766695,0.026807005,0.19188595,0.1775362,0.037148368,0.074117765,0.1306736,0.121848576,0.19119686,0.019841049,-0.06396132,0.2143212,-0.13166249,0.005863539,-0.016483935,0.08398432,0.061657887,0.17362583,0.07633361,0.02596225,0.04537408,-0.10758546,-0.11102757,0.126346,-0.19905476,0.0053088525,0.19318151,-0.28410465,0.009986496,0.07096089,-0.036107298,0.15033096,-0.09729939,0.10357081,0.06360836,-0.0062877797,-0.046465736,-0.020788355,-0.12212105,-0.27238935,-0.12377049,0.19887158,-0.0331648,-0.01563897,-0.13891056,-0.13691753,0.008506507,-0.16875312,-0.06174229,0.21148966,0.25125718,0.109705746,0.23561738,0.13531947,-0.25463194,0.08600314,0.07103959,-0.11203214,-0.074626036,0.05489693,0.040789545,0.12301366,0.084791444,-0.091949575,-0.15373386,-0.013768302,0.042995088,-0.19969745,0.12688173,0.04360475,-0.0765725,0.108143695,0.046461344,-0.032630436,0.135699,0.18772617,-0.021957738,0.0076702116,-0.18219744,-0.039759878,0.06439318,0.026492925,0.0802452,0.18153374,0.07167269,0.11713737,0.08111615,-0.08423719,-0.1620966,-0.23559116,0.13931793,-0.17871262,0.0040187975,-0.090207465,0.010933288
